[[[[[-0.30674347398720847, -0.18623007615223008, 0.0803106460892893, 0.1787858626412683, 0.11100552556385317, 0.10640459637694247], [-0.4900680291543752, -0.0775912201411069, 0.0481814368768135, 0.04697051983157934, 0.20525785281161885, 0.501896498282437], [-0.08337447270929987, 0.0024151130927211675, 0.050369921205832655, -0.18998681322977873, -0.09036883265131915, 0.20311074180653418]], [[0.2773353783810678, -0.47635076092490614, -0.03295495065488115, -0.21694407810608163, 0.1358338971121861, -0.14554068510861745], [0.05197421384830441, -0.8123201439756144, 0.037795053742654024, -0.1733223105860027, 0.15848388124599705, 0.1337561985743258], [0.12002865994129328, -0.9396966802594829, -0.0011684188451485341, -0.03590306605283999, -0.12861695030911008, -0.5341865271966516]], [[0.3116606007749036, 0.628978100233205, 0.0011957391263364128, -0.2715081506799087, 0.03314747919770752, -0.24126356621105718], [0.12371195603089227, 0.9246510882136156, -0.006269423273730337, -0.004037147539247986, -0.2654897311548775, 0.23860353904155518], [0.057489673835720685, 0.9565770979120611, -0.030964052361720888, 0.6089793412012084, -0.4000096192059582, -0.5309080692558888]], [[0.16665980856140802, -0.125259981758436, -0.00217727059954199, 0.07454513437989578, -0.03086948664920901, -0.25260253798069626], [0.23001979038549697, -0.4994397859671472, -0.03129701898257989, -0.12403295947238774, -0.3550607456961619, 0.21668081147215118], [0.09268059622722144, -0.6215713175887809, -0.04564020681700876, 0.009666036600359237, -0.35731234720812327, -0.44936434412512355]], [[-0.13579028146383817, -0.044514571417414835, -0.022062339839434047, 0.1625430482388151, 0.17618551687288694, -0.10649325948604409], [0.058722750761902365, 0.4436741043125706, -0.06640004271146298, 0.1783965216086782, -0.04688328722336372, 0.1731823772243324], [0.09980719390487912, 0.5708132573217793, -0.022101530839248307, -0.22423393243102743, -0.031197134012272393, -0.011932312938285249]]], [[[0.33395572473265084, 0.5611128017318706, 0.04399214503847162, 0.16210076738263518, 0.23114619302696687, -0.20546029172827343], [0.012281500825678091, 0.9460210823557526, 0.03894185504030377, 0.11933043110399338, 0.3920748124135115, -0.07909910122778455], [0.09094894420641224, 1.1395996777700002, -0.0032567888812508514, 0.17089573338232067, 0.053965152128112814, -0.4935733165661515]], [[0.2871750690564965, 0.6302321242564185, 0.055646333320378785, -0.5075960389396701, 0.18048554035483536, -0.030941109945441254], [-0.016011666221151594, 0.4941520932997301, 0.03501136793423017, -0.19016775262646146, 0.20172639448037755, 0.6380884856083848], [-0.02840570076743529, 0.4263167596589485, 0.006555830173819571, 0.9770692848159611, -0.05765110275728988, -0.09296227398595325]], [[0.23937902191629637, -0.07141385978324324, 0.00861316173385687, -0.8420506921433096, -0.0687926002806756, -0.043950315972011184], [0.18377671155699707, -0.7987517119376812, -0.03490970634865039, -0.5775555357008074, -0.37364209704450396, 0.7679929542497221], [0.005618429651927467, -1.0032253860246727, -0.06988088556883841, 0.9992176620805393, -0.509631460974725, -0.08283075150050076]], [[0.05272804382398836, 0.4504183851039812, -0.02660256414665564, -0.19932561575260188, -0.14094204299072696, 0.07716788205871096], [0.01065551631957399, -0.06524058641548476, -0.03292691367783598, -0.24124101913765578, -0.5117075694996762, 0.8930684912048659], [-0.18124087420816193, -0.417270849284645, -0.054584145652573066, 0.44631611232066215, -0.6296847227362491, 0.2130615265514783]], [[0.04412082134750693, -0.057885045551083265, -0.06617341418201446, 0.17147634992471103, 0.05771869736589137, -0.36714360291917125], [0.2200712525233814, -0.20487998162903598, -0.016232104436019957, 0.04378242236846453, -0.21620807816163984, 0.10189600924153894], [0.023145984178109417, -0.3525424832950375, -0.07275673098442556, -0.29357027626544313, -0.28868116856748716, -0.25614502759780383]]], [[[0.2140911919381533, -0.5995009306955238, 0.015821282286466783, -0.1532173282363146, 0.162721842701567, -0.27749119019092433], [-0.0014340676088681814, -0.939411825876072, 0.009992246200650246, -0.19569147023103167, 0.305823136647855, 0.08609720042446696], [0.02628035370678649, -0.9994605164963893, 0.033047997387530184, -0.04001418348983187, 0.11692857203014088, -0.27267543601009014]], [[0.07280555198254511, -0.09090011188040753, 0.011018288382403015, -0.7519613366671434, 0.2994561334948488, -0.1510334139622432], [0.0489367192745487, -0.4873184138224722, 0.023108286323042137, -0.5330162209685654, 0.3507790005919992, 0.626787194181752], [0.13556103044604012, -0.48299005965441916, 0.03754859098454498, 0.7855230485750018, 0.15760265454943048, -0.09982128821104147]], [[0.04534032972804312, 0.7775219112230434, 0.0506598185541008, -0.6536323899356973, 0.01978569851503268, -0.29618734231209953], [0.11992028114221928, 0.44055792556103834, -0.05976211212557347, -0.5900924856352352, -0.17672641130784086, 0.7562611192955733], [-0.08972814531976249, 0.3175252450789372, -0.07241965384891941, 1.315872883720829, -0.32600547288893605, -0.1173323584613298]], [[0.06908848299346994, 0.3978046344526439, 0.03988167804940038, -0.3235854252806527, -0.10859062787762763, -1.0269580460002243], [0.11624893621845728, -0.20605943953965497, -0.009714113050561406, -0.3295445173027284, -0.4237894740438193, -0.6165251465664484], [-0.0413007697796589, -0.4309441829560365, -0.04170068432894735, 0.5327737483479806, -0.5313893727487292, -1.4532275367694483]], [[0.0016293202109316442, 0.192057732240966, 0.0026113227670323245, 0.2852719975121988, -0.0493451351409212, 0.04786060709473742], [0.16726364911353753, 0.14267579020432852, -0.047344917245660555, 0.03383814640492007, -0.2560940833401543, 0.7478117263802276], [0.0033716430471319838, 0.1383409554229346, -0.017790118780938932, -0.10980183482646372, -0.2990849945851555, 0.39054333066562413]]], [[[0.18403010663156436, -0.30849284737312654, 0.09499099697165868, -0.03620788928017162, 0.10683883875891842, 0.0101173166868222], [0.10419196590543207, -0.2899087487624286, -0.013013581270829442, -0.08970995989761144, 0.3178332943427076, 0.49834329064035604], [0.14384481859616258, -0.2054846123480874, 0.0417933537254018, -0.04712728632298016, -0.023476751546800227, 0.34935071740886353]], [[-0.11304771270310761, 0.6099654048741523, 0.0009127853774116626, -0.10155543000525753, 0.2714268078106282, -0.41297031277106366], [-0.12562953928872067, 0.7389003429288475, 0.025868170719048574, 0.05756841309348088, 0.3430547023619455, 0.09270979457550492], [-0.1879758215349002, 0.9668407890470232, 0.012933108558680299, 0.9164382525242641, 0.19083706006758758, -0.667900176632479]], [[-0.01593993813188825, -0.3325034480617409, 0.014734468791363583, -0.4180091085979308, 0.19967184839427718, -0.34854228067779514], [-0.04686471227304032, -0.7995115521895632, -0.017465231230341223, -0.5123679707176901, 0.12623347266065293, 0.41522603567776056], [-0.16044902702293343, -0.8679586443829537, -0.04499929343862815, 0.5280451864000067, -0.063377547986804, -0.28922679273405794]], [[0.013725481383332804, 0.00925067733444952, -0.011266366446944558, -0.03214681239321405, -0.02915816440459209, 0.4394909983284118], [0.14080828538109108, -0.5363596418396086, 0.007238945271822974, -0.40346652117652326, -0.13461262294605264, 1.4089828804089535], [-0.02131703798889468, -0.6006104288550469, -0.04410509137953996, -0.029734333702509223, -0.22413922629831343, 0.7715137988103656]], [[0.0003026497746451812, -0.03345118224270848, -0.03262033199150744, 0.31511152602149056, 0.005024441311893507, -0.4612138229084699], [0.11281689475024903, 0.04773949609555509, -0.0387899231696446, 0.055860540171124975, 0.07261875076806054, -0.14351953128847897], [0.02039125994222407, 0.06890026737265871, -0.07556535647320757, -0.2856427867609761, -0.07582816877985164, -0.3727116443613711]]], [[[-0.023141841358886923, 0.16434410154161444, 0.06621719024974751, 0.5818928319557846, -0.07846145511878133, -0.11693226202721359], [-0.030022295934229344, 0.29143878639110593, 0.032746996167216685, 0.23065095628574023, 0.2385560803554628, 0.02196453535217169], [0.04106854763295892, 0.6170423068123845, 0.04413648860070412, -0.005411128346613162, -0.03747489691360828, -0.030295250659957234]], [[-0.012178348662783877, -0.7154548663085217, -0.04812823652260333, -0.3404630287651621, -0.01414340793985876, 0.011533998638288025], [0.03543068339465545, -0.9657354018709079, -0.028091644732050003, -0.6450113082269807, 0.3682421442340106, 0.4854997140849928], [-0.049391922548489314, -0.7047822349811097, -0.01502825217144388, -0.5430316816977535, 0.10780384494505629, 0.105842045989761]], [[-0.035861272099520294, 0.36365675092997585, 0.035081890022788255, 0.4060467920132425, 0.08959469305404871, -0.24621517838266666], [-0.026925987901346284, 0.47342697062528183, -0.04933244565993004, 0.052502279125611874, 0.263359655788745, 0.3161150113023998], [-0.077280610997335, 0.7443570019543053, -0.05275287086481933, 0.22450836161376858, 0.06186492462140783, -0.10255651387827434]], [[-0.07488338126635294, -0.053362505710607085, -0.016327007600777335, 0.20919606853994263, 0.028968916574930618, -0.5225483872940756], [-0.030563809698526106, -0.3299775148689211, -0.07903528587739155, -0.021923282934880245, 0.12746361162488515, -0.041939678595204435], [-0.013931611158265082, -0.16882677198586274, -0.05254235532433284, -0.13359930106850745, -0.06665561387513287, -0.48525635989988763]], [[-0.05861084790153577, -0.12831421302964108, -0.061364041357693494, 0.429638538672075, 0.03920605024884489, -0.062401607841888716], [0.04683366490762103, 0.09229590112951078, -0.044870801957751116, 0.02503285128512591, 0.2605222539483277, 0.3230314243900816], [0.0919692906956502, 0.29006829149679, -0.03142219169278719, -0.3817606111693565, 0.0972066785339252, 0.27114635726417163]]]], [-0.5466678390515458, 0.5590744781991103, -0.02728947962306446, 0.13161793071079506, 0.06629587536048318, -0.0771367580561676], [[[[0.22958357329990048, 0.15462332934275988, 0.02990817978431594, -0.03290743722267765, 0.09603638129065688, 0.17080862044829562, 0.031984990609519225, -0.009336889850708293, -0.20418295440799797, -0.600629381444033, -0.25223569551414743, 0.019856643095357444, 0.12183786972435785, 0.017665996690709302, -0.04171175973230938, 0.28142000252220783], [-0.1609124153366241, -0.06243737101087518, -0.1037029757248354, -0.08683599563595004, -0.08175934466047954, 0.06866585306659136, -0.11801308752473516, -0.033187897240504714, 0.043252335548641586, -0.1545227222257045, 0.037593858176468646, 0.05651387767842797, 0.04760353272677233, 0.1734016005499307, 0.08689179928932873, -0.14409997600558586], [-0.032425309752377195, -0.032682125206554564, 0.02513453604926252, -0.1110863657633919, 0.06052905892492927, 0.030073129870178815, -0.015336463203596537, -0.024816318826608768, -0.054915450091531655, -0.015989860491891907, 0.03891931006963039, 0.06118462676225195, 0.1178615919320152, -0.005401123843792139, -0.029030921129699135, -0.020415803539036447], [-0.029058082445288052, -0.32616806387366293, -0.11525970550002444, -0.18311148463686908, -0.1044443977399987, -0.18410128125479971, -0.06935256749977482, -0.010576353549629859, -0.2541915663238638, 0.39507079121518457, 0.19775023919127635, -0.21922885495468936, 0.15148539240100933, -0.1199542713195317, -0.06874249967858351, -0.07290888878384438], [-0.02078588976805707, -0.013944093778080589, 0.08510241823579942, 0.13787434144697813, 0.10868668243800497, 0.009005251597003397, -0.007028792149048195, 0.06012169082760578, 0.1505190322039338, -0.2824588735014484, -0.13703580212411687, -0.08829154190194712, 0.09980964443879639, -0.0033856096925516297, -0.1533664035029609, 0.08414965466225408], [0.25106858541197713, 0.16472374982207927, -0.029457267238476467, -0.10051150722997781, -0.02957999803244592, 0.019314909739336465, -0.2956580020777114, -0.08643161975521342, -0.19065486369793636, 0.020398430394186456, -0.022749402925159132, 0.052653985037621996, 0.05748001269518425, 0.024225419548270597, -0.11325256211179267, 0.06478332898981587]], [[0.18334648173705997, -0.09711760831346539, 0.020181008636930536, -0.0823146996563868, 0.24547705771799158, -0.056649778423774395, 0.21288553842360192, -0.037963257262921324, -0.19678844480675536, -0.135285169010036, -0.12780818039645064, -0.08225074504589065, -0.21583541582943766, 0.1858960765009662, 0.042787542019477924, -0.020004760515703914], [-0.3308375516509049, -0.12265541950723628, 0.0023775081382926776, -0.05911554529077299, 0.2905024498247969, 0.01800971566239905, -0.06739952281146863, -0.13078978122256468, -0.04344794286012582, -0.11836271863462026, -0.06526867336138567, -0.026273172557836892, 0.05618754003621626, 0.28173087100474536, -0.006216238277555584, -0.2099332646986696], [-0.007576257699336514, 0.00869963992804379, -0.08933703142410995, -0.031628521215915764, -0.04313814528359134, 0.03127236736964218, -0.032965592020858026, -0.03983280181328815, -0.02348329108739645, 0.01242703683807565, -0.009896395047453578, -0.12225625356659214, 0.04051142065038513, 0.011635102876462354, -0.0100188436432117, -0.04420707439251145], [-0.04363775124387011, -0.18631997831860514, -0.3640398628691596, -0.12815810156079907, -0.27044005552589023, -0.046139428516373024, -0.047402772790174394, 0.09803827253928535, -0.11153564534990111, 0.19701521551881263, 0.15411357397207934, -0.06884008908900352, -0.12384410515669515, -0.7148211652471228, -0.05532018227109984, -0.0029118015732439383], [-0.2968595588266688, -0.0279725660296144, 0.06880788962597864, 0.05174926695456565, -0.06875122682973572, -0.09833924825456099, -0.0875205189930782, -0.03868540150505775, 0.08982734735211445, 0.006301695584243749, 0.025788841843289008, 0.05995270893593497, -0.022786105419289687, 0.0579525594339292, -0.05082389585532578, 0.09023063727659464], [0.039085864800525484, 0.2630121397285311, 0.05828451936195917, -0.06769369981331905, 0.050429182306144626, -0.09247768207217459, 0.06353134798447327, 0.06361145086899594, -0.19520122099288303, 0.04398169218215036, -0.1522483567769328, 0.06615072504553475, -0.13751222011485356, 0.053747782104098606, -0.02598344245980101, 0.0520426469832646]], [[0.18152698984289117, -0.04250880224287464, 0.09633663104169805, -0.08869338787468592, 0.3333485678383828, -0.17254462977565363, 0.1601471171588151, 0.08924189556514116, -0.10657193478919116, -0.0786296680003616, 0.030522840029234517, -0.13708918050293115, -0.33413016629801795, 0.020019948035686436, -0.017376345879587807, -0.27040570149306736], [-0.01730799450082709, 0.01771768585299705, 0.0786263927415171, 0.07152163857987039, 0.043735766970173166, 0.003138495155296973, -0.14286560461755626, -0.09598418139946388, 0.0450195410058953, -0.09520547229294234, -0.16160566405174437, 0.0033061139636179127, -0.04398252252433164, 0.17985509488388715, 0.047486628249516515, -0.3530609121191947], [-0.029520770650186278, -0.0030550439968758682, -0.03552269804241596, 0.04299406984383839, 0.0690725641328703, 0.017652940182600555, -0.031211296764703703, 0.023591141041100452, 0.005158933861425665, 0.03558611393118686, -0.028899323585150915, -0.12448628126466499, 0.09659164805826168, -0.05780578103222411, -0.0013152544065445464, 0.09990291115744566], [0.2150552358680531, 0.3939039881093402, -0.6162306202768354, -0.18000329087551425, -0.11315153847899974, 0.15018488234532257, -0.044849177273481276, 0.1021450342197927, 0.07844822081629674, 0.12871750778648702, 0.17037369139021413, -0.09543074503439938, -0.07107269050418599, -0.08118660651190834, -0.024430612695739613, 0.187822669446772], [-0.3318549706989058, -0.09936343777522663, -0.0006380560435958842, 0.03630647368816065, 0.1306729976006422, -0.11161234004153348, -0.1427636822011825, -0.10693831979661148, 0.26416336510352834, -0.054007191228175364, -0.03411214940923656, 0.16114521898923062, -0.1365067955688785, -0.019569250889209803, -0.10313986420869709, 0.05530441479647913], [-0.23934767713391616, 0.2562937431280498, 0.14974883150175167, -0.06927211140607303, 0.12361814427286422, -0.032685121410852565, 0.0768132099616897, -0.03882288342028774, -0.10425029737021818, -0.011185782327397748, -0.0303320619335738, -0.2840087889387906, -0.12342902430390279, -0.021291722360819113, 0.07582171897299352, -0.12369062537912226]], [[0.4348599717798869, 0.08863417464492432, -0.08096860543879718, 0.025417028158520295, 0.04913227339786159, -0.2628779202561057, 0.02324763033533966, 0.13603207340560905, -0.06469306017875574, 0.11599161915574588, -0.21644586561767312, -0.05465601555420253, -0.33564469147383325, -0.1490535761828378, -0.039386235117855516, 0.03928653407157045], [-0.09591204921368929, 0.002624591290263356, -0.11322710769034089, -0.04091802702141572, -0.015238456113905407, -0.07452893505481141, -0.07699813104628601, -0.037541874012211145, 0.09103012148222812, -0.09116386138372885, 0.020135172906505603, 0.06524958700358148, 0.03933599734805472, 0.0642370330392077, 0.21626657265771695, -0.26477735377739037], [-0.06046985602668034, -0.0007335338793179746, -0.039280016148401826, 0.006898283234076992, -0.01487196610856963, -0.07777664093800048, -0.013782057472229194, -0.028907848400339924, -0.07832539194994222, -0.0002923360213231572, 0.05802350750898055, 0.019434378346432857, 0.03057160808024958, -0.04759483262650901, 0.016442465853572022, 0.010855733321157605], [0.28108796289840543, 0.2940012815072596, -0.22655256600309456, -0.2530756335824261, 0.06460684011596193, 0.1503864488543277, -0.04030235036486669, -0.12045742003893718, -0.07191405930419029, -0.16279340971000542, -0.041155559398302656, 0.575555609174013, -0.027844836457360782, -0.09683451976955028, -0.005864749095574988, 0.08502608661042067], [-0.326944273972099, -0.005052992883064088, -0.07470445430952934, 0.11368134456769664, 0.11797210270774085, -0.181037593004984, -0.05687985570758121, -0.03606984813982331, 0.15402232933941723, 0.11041525923202149, -0.08793703577223311, 0.16832805367453757, -0.18207909263279443, -0.0826769832064163, -0.07276963056697486, -0.05131065203522122], [-0.1723275755313643, 0.13339802458702904, 0.0790430470971273, -0.11771915672478632, 0.1570099019482278, -0.1516892382560521, 0.03398003848482232, -0.039062494487131054, -0.18945728904485576, -0.1133323132815311, 0.10806330216466235, -0.26405428108872553, -0.22539338614296928, 0.08283680559934559, -0.19781800053310875, -0.11076815964215517]], [[0.18594859551414394, 0.19716427213150536, 0.014799866614585603, 0.04201785503532872, 0.05636087542891628, -0.16673675898484114, -0.044339255439384904, 0.1182787965427858, 0.16415907628290285, 0.5938600224311065, -0.2903432720614076, 0.10354984847954134, -0.10893974511220093, -0.2030180181186458, -0.16925954422803988, 0.23039767644599274], [-0.10137132841896931, -0.01344669047692668, -0.018035194469073777, 0.03695619840623819, -0.10144125003986275, -0.03146277989293594, 0.01102246967518014, -0.13307957729293157, 0.09411877462543793, 0.02613014879165525, -0.05419271816558332, 0.15179248949356738, 0.058212410985024325, 0.007417495723839738, 0.058535465428372735, -0.27515823029993214], [-0.0008696803866613479, 0.012573997701039747, -0.058906933787708476, 0.02953158160010491, 0.028039956499626782, -0.028868971728010395, -0.018473768673140815, -0.03476878038692506, 0.02471917746402335, -0.05273327852409475, -0.009939359559961702, -0.03489572346086788, 0.003832722041056755, -0.06667435883104646, 0.051879809207492356, -0.03415199627830207], [0.26088972556311213, -0.031391688925022594, -0.26009615615723997, -0.4138387729134378, -0.09715806644023164, -0.042207721187179324, -0.15554480917703814, 0.09807444542871172, -0.10151499208718681, -0.42533606628857334, -0.016659377665948053, -0.38031568409890537, -0.11798592476248683, 0.17791042742989346, -0.06554969049320167, -0.010024391792545913], [0.41722379174867347, 0.07098732645937945, -0.07741182994080523, 0.05575516795888395, 0.0298419875900981, -0.17266114520366976, 0.015355181481553688, -0.04298145300452249, 0.05139369709518053, 0.2468360421982126, -0.09860306527537543, 0.14441397732590303, -0.18208723912775995, -0.16802291241682585, 0.09024277074736807, -0.06115280951618945], [-0.07534227914467782, 0.08025855455264408, -0.016323048874213524, -0.1998700535463143, -0.008550640324055628, -0.02513403185081493, -0.18743262284910522, 0.08500859721670513, -0.2456124138778942, -0.10137422664427957, -0.01903406380402952, -0.02560918816166848, -0.1066182987541559, -0.14829853206537966, -0.11669015837387144, -0.09975386176429286]]], [[[0.10832805834315168, -0.034747319464976285, -0.09917052451591386, -0.09892692652153016, 0.28598138722741395, -0.09013104557148939, -0.23315630198998968, 0.07661862846138592, -0.05515866815192338, -0.551855209599967, 0.04999201323846837, 0.06369254409892183, 0.13839548069389437, 0.2672428885097873, -0.029444211110683124, 0.006220913400027335], [-0.283896382377427, -0.012222121081025298, -0.0938986892216554, -0.11557546133725898, -0.07552327860379408, 0.11006611423886228, 0.04479160295146316, -0.10428685248495004, 0.01223449456906225, -0.007098867925762785, 0.014534244112640045, -0.04001018002045311, -0.04802945672404897, 0.39790636986821676, 0.2096569407259382, -0.16542191177115392], [0.022630816373280627, 0.018306575354206555, -0.018888699055688088, -0.005154367475628871, -0.0045786835300168135, 0.06842819054140097, 0.01848225094073929, -0.003030319982495226, -0.046734924661057595, 0.0403089781627157, 0.008536927576876506, 0.06039093644831299, 0.11846854608513768, -0.01943878926908329, -0.01566793293103041, -0.03785670320954906], [0.08515861501184357, -0.20944495555293724, 0.25255660139487374, 0.004434549876223895, 0.23659352807524608, -0.030486602055979337, 0.052729418227294225, 0.04098353981882216, -0.1857281058634662, 0.1457854929347626, 0.06887407479018837, -0.20393047041025045, 0.13696702918192546, -0.564392932898725, -0.0005642200244711088, 0.014470227501761728], [-0.11131502617032725, 0.2045627207403102, -0.0157968129433109, 0.06260969648776374, -0.1006153199166879, -0.14962796949556295, -0.013552341607654592, -0.04105844024993264, 0.026682637277932176, -0.1522776452354311, -0.1503967119931605, 0.02863285474167691, 0.06524220155919654, 0.10891786956514087, -0.04350220276919042, -0.026681225649965935], [0.21952635629774217, 0.16450302088931867, 0.06768280419561283, 0.08287238179503285, -0.18305354654699604, 0.034915891311844936, -0.12059344316991262, 0.13865987961650417, 0.040699474905186744, 0.16393243313804065, 0.024077021060051072, 0.12151162010046314, 0.15089037811700873, 0.06797180583928733, 0.036137078718391835, -0.01591912893824936]], [[-0.11770594765919988, -0.24661011874600408, -0.04561863964876516, -0.11285352882374983, 0.1214974699932943, -0.1394594294565471, -0.10577523691342794, 0.10230551214575223, 0.020967285228487474, -0.26263823712508905, 0.035235647508499356, 0.04502120841460979, -0.060669041261733336, 0.2444844736058621, 0.04614332319621678, -0.03140915310919727], [-0.09676865070948608, -0.00964956675726326, 0.04979454584767608, 0.057102953837022165, 0.10353132542958242, 0.04913221287347919, 0.14715690633814763, -0.0860458971559632, 0.01567475753024589, 0.01378172831697677, -0.04526654413320964, -0.06887538096014964, 0.03427393614385204, 0.36229942245515834, -0.13894948480056965, -0.25032005074227603], [0.002122065523015808, -0.056472274910814885, 0.00923324235669997, -0.056058287221550464, 0.013070476873958584, -0.007159466279288759, -0.003291771654725426, -0.011853743498027041, -0.008647119954119042, -0.004100000140928921, 0.00805208168468291, 0.017481058462699334, -0.018267297129192887, -0.051968641820818944, -0.00018762832698702723, -0.05767936502671538], [-0.09976964354857114, 0.05230346408590715, -0.17192392191697484, -0.07455737893888269, 0.12146398458646783, 0.1640889077189826, 0.17215393033655102, 0.1925773359477136, -0.14778167883608695, 0.11819245382839598, -0.012200975806452066, -0.19035225990463378, -0.31214462531515325, -0.4954982876920865, -0.0501695260858976, -0.07487347391374823], [-0.06257941816345135, 0.14748516158735434, -0.048474658964702697, -0.07156303007157408, -0.05373361120691548, -0.12050585170307522, -0.029559587049902015, -0.0788422250568214, 0.06691715508263431, 0.013242459314695641, 0.09812188895548656, 0.086952855823804, 0.06135603071725134, 0.05551237383468258, -0.021202365200345297, -0.24705480857008877], [-0.2116784406936472, 0.2846609443848075, 0.06962840647272539, -0.05537152596708548, -0.02196682557730978, -0.02887284820928462, 0.16930516383403071, 0.03864251787337501, -0.11310408600371424, 0.08594990649367229, 0.21458224994695513, 0.04799186653682823, 0.005233155768501425, 0.23504573013076055, 0.10205102037790209, 0.06568563296627271]], [[-0.45374874788331865, -0.3485891022486491, -0.22791682718940778, -0.0715375436251258, 0.09735617643418536, -0.2759514859654193, -0.2642558453242435, -0.037002913620025134, -0.02829579680855381, -0.04553329930923973, -0.13034910781835346, -0.24355992890604186, -0.16979928614767675, -0.09902594050125, 0.009050296715435342, -0.1335075933688956], [0.20868181002598588, -0.04002046491463288, -0.03299111587793105, 0.08949314755318391, -0.10784735486733073, -0.08937813662738313, 0.17071889661288397, -0.1156227957505227, -0.14553527965967852, -0.16968377810897464, 0.09347532182739764, 0.06035608956447209, 0.2772540058586971, 0.04993465493451391, -0.05087346758860972, -0.274519424434087], [-0.013332535463330047, 0.024339390860329217, 0.0031407482381570844, 0.014822649731082205, 0.07114937050961616, -0.06762815709699854, -0.026388506431908626, 0.034362375394565645, 0.020562250840324203, 0.02991025488082412, 0.022842691256587902, 0.007017739593096864, 0.08582234050406548, 0.025436062828206697, 0.009058283663907261, 0.0061226014722105615], [0.05066284701969748, 0.5104011308117102, -0.42093614997806594, -0.1797652551679294, 0.236336035601542, 0.19072340492654136, -0.009026938109874167, -0.18051073419596178, -0.093101272085014, -0.10091108687468028, 0.10520036400363075, 0.2360354304234615, -0.021343777752649125, 0.20087674476638262, -0.11371191201545754, -0.054063585411720884], [0.42388979231656815, 0.1580247690042583, -0.004126704355640225, -0.03088067733762286, -0.0507764507333169, -0.08929966752040587, -0.08146609798760537, -0.18265891309512475, 0.06687077098439227, 0.10674533308497043, -0.018969141096745055, -0.07755739414639083, -0.14718066954037906, -0.05391195094812608, -0.20053210113654332, -0.3635640977959882], [-0.5234020907520925, 0.19472578953000966, -0.014474372615613067, -0.20503387421904035, 0.08103285483959435, -0.03973493482288265, -0.1665863393404249, 0.02061718862402311, 0.06103139143511697, -0.027880602149207193, -0.02379891059561082, -0.32153451914415837, -0.19804512944736297, 0.029261101104184516, 0.23386203436165542, -0.056768278929561516]], [[-0.31202763929831034, -0.23650263934964658, -0.11209907363503574, -0.05367770169781265, 0.1896313864300781, -0.3032411387249735, 0.07910075455955953, 0.024335981450534717, 0.05279768696158533, 0.3520927410404336, -0.06917532673290183, -0.4435156643372913, -0.09778931099896215, -0.014804238217488259, -0.09096629126492858, 0.02580975584184138], [0.13909427297104657, 0.02664083995052014, 0.1366273302187564, -0.021780517347062305, -0.15832949008411615, -0.044511947009939413, 0.17923407480446982, 0.06446693876150429, -0.004957236937405625, 0.06233891965225046, -0.10039474116953279, -0.05400875437472088, -0.032313207863660556, -0.09652995624896572, 0.13412057706617841, -0.2604895892220919], [-0.06366718774179753, 0.003031464965285796, 0.04844182872414401, 0.021488810526717576, -0.008049787131667098, -0.05572502408151684, -0.13175728074617618, 0.034442144799625214, -0.03516143522084205, -0.022488245716640855, -0.006081605527801052, -0.06865229254507249, -0.011112952852880284, 0.08549928481972478, 0.020045224933141204, 0.018232318299691592], [-0.3145821123335869, 0.46688008172906614, -0.12370884948565747, -0.10447480694318347, -0.09857944131216023, 0.35960116416022697, 0.06422125548109184, -0.1504094626740357, -0.11079780979255242, -0.13621785844592055, 0.08949130048109587, 1.1961996439865608, -0.1422859758895652, 0.20859218875429714, -0.019521636397985598, 0.18901337841559193], [0.1327385785390932, -0.049051424351807496, -0.023032378932442126, -0.05001888592773629, -0.048821601337747024, -0.1371485614099768, -0.08480634503557817, -0.10235431790807295, 0.04730855837052574, 0.1124833764603369, -0.010981075935847419, 0.0730408860159457, -0.026357109482380358, -0.2649474265440572, -0.09243192546593709, -0.07039646684709051], [-0.5639550792467699, 0.13361468991444028, -0.006626092952126107, -0.1185849214262599, 0.10774937095241906, 0.035777221982935724, 0.0676742326860274, 0.08428021059010453, 0.027004159332734087, -0.12578403772935687, 0.0864691993682209, -0.4412291995661656, -0.2033142463050904, 0.0075976322547295265, -0.05960558903409954, -0.11007077365152983]], [[0.03511577890704709, 0.1759649125525166, -0.14813120212903197, 0.009234455853318854, -0.04750294353134912, -0.2853466538428515, 0.06586440919885454, -0.11056734623992111, 0.17834813317579323, 0.5858769516741622, -0.3535508054220182, 0.10287767987361758, -0.056032827145332254, 0.0640183523696891, -0.06899646499430367, -0.08565246042636025], [0.07375180595581866, 0.004387109831131554, -0.040518721768181186, -0.1758504229125141, 0.07629308968558111, -0.059119456086254636, 0.0831534365663572, -0.05460533614885179, 0.0006297816696015958, 0.2311074832162356, -0.30700851973485654, 0.0682043668606636, 0.09198420894234323, -0.0322163433399316, 0.0760316461864436, -0.24309407284957588], [0.0171680908273929, -0.039253777302982885, 0.04307366578500395, 0.01242828717364701, -0.0483309116282715, 0.10200973012911181, 0.02381255472110087, 0.09589331050459807, 0.05773298580566058, -0.014812879384699216, -0.017924664570766524, -0.01852116657886711, -0.07621942973782425, -0.01704105790922981, 0.0115206027026869, 0.0676889859739253], [0.08979357470349195, 0.11577478676950301, 0.28466650404424804, -0.06071352178775792, -0.17360102441932335, 0.05364469821630345, 0.006023845976222973, 0.07544711953823373, -0.0821648740766529, -0.33765531267863463, 0.06297819322239091, 0.5219318055165335, 0.03751286121921488, -0.09628768725628127, -0.10991139533583816, 0.04242932635921007], [0.06482815189777073, -0.16626945335934748, 0.021111774230037312, -0.046890507143215625, 0.03011184743312405, -0.1337241919797806, -0.03623022128904387, 0.05608260656733241, -0.01610891907042602, 0.010162809385254601, -0.05282654223601282, 0.1625833193229834, -0.17918567550793274, -0.104910468856876, -0.048965408072183414, 0.0609339431943104], [-0.17022491983064647, -0.1578781780298523, 0.010051137647575254, -0.31914495030577344, -0.03521986830340673, 0.006719682666472419, 0.08515480988380326, 0.07836901889803158, -0.3170082857792807, -0.09649392453598254, -0.020667508341045217, -0.15107948506010915, 0.00796185739087588, -0.042355986459079585, 0.03613127912888674, -0.10648219110084683]]], [[[0.1313073376665179, -0.039535191367094054, 0.04348872732592433, -0.12491725692122987, -0.11138168035498305, -0.26104387551966035, 0.2602725626846444, -0.12231000289540157, -0.07841114787887661, -0.4597156110277571, 0.2061600919082535, 0.046448337135922606, 0.16197985401080559, -0.1847119142263932, -0.06126461497982619, 0.16433226130798798], [-0.2608416602207593, -0.12178327421777561, -0.07614410523256415, -0.06783277210770108, -0.17378262453520935, -0.021190343030894954, -0.09202987199364186, -0.03957584419085716, -0.03077282931550126, 0.024237101868390457, 0.07205085502811778, 0.05796793769227842, 0.08415568131293527, 0.14511790899370064, -0.05929288197732547, -0.15596476852816607], [0.04954141492916327, 0.01575497307974707, 0.02591529467160337, 0.0284019717051907, -0.13266640237154392, 0.040905964880511896, 0.06324696310727149, -0.012238111969604682, -0.011711479479354815, 0.028168887766665894, 0.015409644316347249, 0.020396890326487994, 0.045835260873557555, -0.038480986520227474, -0.04065631743425565, -0.0419166235065185], [0.09946049646708739, -0.04091258092345866, 0.08943746713044523, 0.1604430193997051, 0.09931028337769568, 0.08097833388541907, -0.1496645487270068, -0.08540086370377264, -0.010584884397005235, 0.04968730192528118, 0.19057175154302186, -0.1499064775571546, 0.1268357522769761, -0.08461099711186464, -0.0537281347145844, -0.008247092393271286], [0.0755449727715016, 0.09000902265773225, 0.017413853340389484, 0.030103951107917387, -0.026192420406690627, -0.042786619666343555, -0.1228290389887659, -0.08298357060526906, -0.004786826028854561, -0.04834775278247857, 0.12755838988929116, 0.05044737079240606, 0.1656323944305015, 0.1614679818113023, 0.07031603538525438, -0.12073048514293866], [0.13051411327808196, -0.03663614397299878, -0.07385825251328165, -0.1232465356221252, -0.060721628727008065, -0.008895299266155442, -0.2310049363805291, -0.08478628449578358, 8.328717155211636e-05, 0.043692250214827665, 0.023467519499580484, 0.08963241700031964, 0.08502842810125105, -0.09921181479819198, 0.0705354728793582, 0.05686365247097549]], [[-0.07390465897282811, -0.17543326305727006, 0.029446819839678104, -0.18086714738667944, -0.15090430881813177, -0.17999380789486344, -0.05390266014286116, -0.0465019665554072, 0.02284784705421922, -0.07117159395163773, 0.27837328655668014, 0.06388568245222911, -0.08767926674080993, -0.12510198869551156, 0.008499496458701992, -0.06397293250968014], [-0.10723698808364068, -0.15961565782950973, 0.006303610377360263, 0.12555245500486908, -0.033675466859518124, 0.09074759109687403, 0.09443878024585767, 0.06558225621209696, -0.08705107035203173, -0.0340100655259835, 0.0072333808253129414, 0.029414589602138105, -0.06081383044387447, 0.0030367850512746106, 0.027508044312470455, -0.1320268829893577], [0.08635056323365603, -0.03009933328098038, 0.04803418711697223, -0.0023068719390018947, 0.041489832302144564, -0.0741599123909418, -0.030713145666948747, 0.01367474321435997, -0.015419375190129357, -0.00474700623280915, -0.034900861714502095, 0.04133642304086913, 0.028820322580540965, -0.011807111499476877, 0.02780868252448797, 0.02594672521220697], [0.18826416069859989, -0.11193149111435298, 0.10302539848528453, 0.10066490761965079, -0.07215056941885202, 0.12426886302820404, 0.0917272282338741, -0.25190922443416097, -0.08308530043468927, 0.009344286571692279, -0.05962519541853752, -0.2514223355432889, -0.051961200843389864, 0.009455266549131949, -0.06536099289566395, -0.05464137536335594], [-0.06994877874230365, 0.1953179555689849, 0.040781885298849484, -0.06458379091323396, 0.16387645356962707, 0.03294691626088271, -0.11201079221376992, 0.08819521555557645, 0.0014895286893451837, -0.006563393665661568, 0.07541830458380161, -0.1400923746191423, -0.1088396049572072, -0.07202387130114266, -0.05812474056871183, -0.006512953874458718], [-0.15768846449834212, 0.03356758892748532, 0.14526561717600306, -0.09398117372756484, -0.09147172666593423, 0.03209746910235707, -0.0005341498700022632, 0.047962280719242065, 0.0233061772596421, -0.01025470924709809, 0.012178882295135302, 0.022284956765251385, -0.21076481504068112, 0.02099120705013258, 0.13130982181594303, 0.0533550437448261]], [[-0.642395357384117, -0.5705052092999279, 0.013139119907997779, -0.1133368500763737, 0.0013836341078227758, -0.13731163688652992, -0.034507878908939985, -0.08387973723215292, 0.0029364553896077386, 0.19937730175498763, 0.06353822511091498, -0.20162072858064317, -0.13772912882641106, -0.25242578343707595, -0.10177164824731379, 0.09523675157527972], [0.28565526943057096, -0.111789337518654, -0.07463458738385541, -0.061166615879727784, 0.012621806755119909, 0.04366257521941302, -0.06011645893787418, 0.12212460349522383, -0.12326915870178173, -0.08445186441754465, -0.0602562184596207, -0.017625051257335565, 0.13059849577805596, -0.10788500844995859, 0.14636863646327383, -0.14640405436446333], [-0.03127680212999441, -0.040681474494717235, -0.03545740124663651, 0.030507129903871368, -0.017246985174987697, -0.04036071526583468, -0.003429857880688541, 0.026398578978511174, -0.013355929027795456, -0.019451672506441066, -0.0013557012178015183, 0.07725470767195211, -0.036051540796885766, 0.018329589970973118, 0.009176773289559723, 0.049850054273838366], [-0.16928911053598786, 0.1996667787074708, 0.21721223407255114, -0.08276570715300642, 0.18638867942945023, 0.08583090296660889, 0.02405894318123291, -0.2598067968612989, 0.05926899994799786, -0.14341610260364, -0.057535333983756466, -0.13783374867507267, -0.21662205794038966, 0.3708069299335651, -0.14383582226043956, 0.07470590629970099], [0.5679031975074548, 0.3129089013710085, -0.005424485572969143, 0.033663596353597884, 0.014260914629848234, 0.053794484367479634, -0.05734779794780893, 0.13587106724121775, -0.0015178613991399777, 0.0941572925477852, -0.1451360473157241, -0.02725581278222334, -0.006456778103253437, -0.13728213131633407, -0.1693675643696015, 0.002118979850575354], [-0.20858638412676056, 0.13913362534740661, 0.005166219422911626, -0.07725873347702002, -0.041453860205070844, 0.08315758669173505, 0.3211895055144689, 0.21355825081400207, 0.045749779096320956, -0.06020887666271047, -0.050774733419441026, -0.26750195893842443, -0.22977920686615538, -0.13200954786848917, 0.10389200150170415, 0.06637616572780813]], [[-0.6977404619005289, -0.37871261772039316, 0.020211188255820186, -0.12658272291045752, -0.048927393735488676, -0.10700606729109076, 0.08893712761090813, -0.0633271085463081, 0.2162508600445772, 0.2337962901569495, -0.05576683928225277, -0.2934026940749225, -0.06660454975624332, -0.08349871547469236, -0.1946506512757193, -0.09990163886640506], [0.36954748404076543, -0.11033297762864167, 0.007102803396572063, -0.05248348335834605, -0.07185821538345046, 0.01643979743385216, 0.06728683220327873, -0.15029708709293374, -0.13716032011773469, 0.010135374271296996, -0.08279431526642393, -0.14798483121908945, 0.07933426775701156, -0.061830098974717924, 0.06072212467739095, -0.18958191360415538], [-0.07240643259696608, 0.04623303108055309, 0.11126076327645652, 0.06572959238593962, 0.005522930241035879, 0.07389830476358077, -0.003366286725649467, -0.031095985752273597, 0.010259482123647457, -0.004263649545813112, -0.053032051611423575, -0.05154207503157013, 0.04135234592156289, -0.07980949871688645, 0.02614054816243031, -0.06271742966446367], [-0.36988680288649206, -0.0674690202542063, 0.09873639245225783, -0.13294114592259287, -0.12973126594725626, -0.008128590896945715, 0.22363553072114567, 0.18675112738410243, -0.06540276522989831, -0.049584330398850476, 0.13940330929915787, 0.6201635254514419, -0.04980501149899591, 0.16784241078976206, -0.1447692650168792, -0.03877691822387462], [0.13215141541216563, 0.08472127682638428, -0.03961757446566784, 0.06820327753454968, -0.01236853766356452, 0.09207496004006234, -0.02824976683511127, 0.048613455190787545, -0.0703219382249305, -0.02829979678663529, 0.04626016325918526, 0.03258231128174319, -0.061466405452875954, -0.019670039502901956, 0.01654002472295816, -0.2670198673309757], [-0.27843413890070795, 0.16194374393854166, -0.09037530250716345, 0.04367843272215438, 0.10384921987353489, 0.025798079557210484, -0.12125401879265861, -0.024146352787226762, -0.10762258014942067, -0.0765783459432689, 0.11409553139704669, -0.42330921778250513, -0.13256074395836923, -0.0846561318567303, 0.16597114118838982, -0.07317877365446387]], [[0.10194888788424371, -0.05119454210720961, 0.08086639311250836, 0.050271316512243286, 0.03223799667480196, 0.0953304393762557, 0.0640614673253209, 0.07356938080988851, 0.021718993754906574, 0.4158873536372048, -0.16091691120336155, 0.15815476366857148, -0.16494241864763523, 0.05167425463848186, -0.11075865104801383, -0.10990449509641921], [0.1485189152304302, 0.05423042759277699, -0.04139236839856452, 0.05935671393311121, -0.1663349750797391, -0.06225341672321119, 0.33912820219514594, -0.0021115970399753566, -0.21124779936545682, 0.024521743461734635, -0.031938547423511245, 0.12234615697817337, -0.03838927187342842, 0.08602610702870778, -0.028380007310781878, -0.18028903157406093], [-0.007459219334036789, 0.002282968593943056, 0.0804995511949455, -0.0010633871132846703, -0.0034137203648540925, -0.05000767345445649, -0.0119556663527831, -0.010995632443704922, -0.026472589047773734, -0.048548188160719895, 0.016754546228994457, -0.005163394333028042, -0.00916461327033648, -0.05858636376972614, 0.023573340528967777, 0.02429711802904881], [-0.03486093127872881, -0.1259155135953415, -0.04616750351495256, -0.09041773131801241, -0.0010412012250526066, -0.1895467146777466, -0.002387117596098329, 0.3391723859493551, -0.07690566272803177, -0.09664005734160534, 0.017526360559062846, 0.10189067564470031, 0.015838998848913478, -0.09084699981855561, -0.1687592235954485, 0.18522377321728137], [0.09383006291651914, -0.013224594934366066, -0.05018575577832259, 0.009204338870044678, 0.00445099589164907, 0.008479434461297368, -0.24944258440406658, -0.13548122352352632, 0.15302317023386408, 0.01561032144462955, 0.013800913490800683, 0.05953401892103346, -0.19109198399577118, 0.05604811380648984, -0.02344120852326674, -0.06768990557757841], [-0.13891892374625758, -0.060899775090124245, -0.11280390454637913, -0.01575750376605874, 0.05491638683398611, 0.1404021940979234, 0.3810015129888585, -0.04747794090477725, -0.13585433939998934, 0.01931345947071202, 0.06092631890240737, -0.085415087357714, -0.02915416266482387, -0.03103222228999657, 6.124363392322803e-05, -0.03691825591158043]]], [[[0.19961753173870347, 0.02831861635525538, -0.001594733727346614, -0.14349921502523366, -0.014028521657736133, -0.14531597184757689, 0.20144928805789022, -0.13845362615047968, 0.10365359967774614, -0.2808116024754569, 0.31925483920697234, 0.0166207569799542, 0.039585931184702466, -0.11465918451246805, -0.018737072037945165, 0.1943422257748282], [-0.04025358884836865, -0.0804188230893175, -0.045753165771374664, 0.05929729809315836, -0.13848392156295575, -0.014104418240224213, -0.285656691943852, 0.11533157253958654, -0.04112254682865657, -0.037265848644459226, 0.18230256343628481, -0.03732404187253475, 0.08505687434665468, -0.035945224634944, 0.14809051482438362, -0.12411941971425496], [0.00014498414160636863, -0.003729185525158112, -0.01167264790001322, 0.04992871291990962, -0.014494307795150655, 0.08789750812305684, 0.03569308216647446, 0.02690331892067066, 0.013518217759127085, -0.04263858205274842, -0.031109775691012025, 0.018403740872391355, 0.06441969192649262, 0.04014253647578773, -0.019123487905213427, -0.03961246200223673], [-0.020273009880076045, 0.07286375650870591, -0.0042667298355749984, 0.3307939865791681, -0.26351560540614605, -0.0038921906243092963, 0.027572641835840128, -0.322766417337818, -0.1422408955333266, 0.14246861189455776, -0.23380936776073805, -0.005900932378619366, -0.02314808734793265, -0.12028078301343759, -0.06634987927237153, -0.07310954705126024], [-0.16553180168328654, 0.055438531336659665, 0.0045344843139898975, -0.08524039787265304, -0.061680504742643506, 0.02253405031150479, 0.04993933023075844, 0.12517029048654113, 0.06876736031133929, -0.08620821932098627, 0.03694582049816958, 0.00372575289958275, 0.0005659628247701185, 0.008139717328636359, -0.08065789625110226, -0.06665790941279703], [0.061441666166512074, -0.19192238304344403, 0.0626000817948192, 0.12287353292467432, 0.05624906816615626, 0.0468120011180248, 0.14025886299464302, -0.029218504596102254, -0.05838312940868567, 0.06733607822801906, -0.07523218389445316, 0.13942711652078277, 0.1873454453921948, -0.13935222307310235, 0.11280801509941336, -0.04877541528276133]], [[-0.273505686335144, -0.12013302390622592, -0.18038352427475784, -0.13506423465073333, 0.07961980492753627, -0.06864789135750976, 0.01226031229937112, -0.014921986760706562, 0.129041324034032, 0.08155510817385993, 0.4445060676709154, 0.09130541733891352, -0.15699664539569583, -0.20029507471801639, -0.14850181911123445, 0.0026837957337315314], [0.0730833668293577, -0.21001695888560135, -0.14026510509742915, 0.08655085093093044, 0.017223515738774373, -0.04724398459416103, -0.03767811092068028, 0.22755786557686822, -0.11242324875041607, -0.07062246766397803, 0.08254387326214192, -0.050270291374464274, 0.0015674494399775022, -0.2946663115303799, -0.13506046517874756, -0.14978088138964663], [-0.12350062039069996, 0.021866121158111967, -0.06458112171669528, 0.029908010511292965, 0.00347679866849372, 0.05285793626866515, -0.014714702178313525, -0.06369977706037677, -0.010726020213882737, 0.042939447376689165, -0.022312545885990503, -0.0036054551027780942, 0.045649048958703094, -0.013097178500755032, 0.00040943654950511627, 0.055855909564172024], [0.01079946487965242, -0.12285415440618289, 0.35432831011939486, 0.3551852025177911, 0.20507360634640007, 7.597959520977917e-05, -0.06497237895006623, -0.5634007056298995, -0.07541780796706686, -0.04428288585537587, -0.15742776862940694, -0.2441459887652253, -0.15419706807964, 0.27662513537359973, -0.21688787743637816, 0.08656972249211424], [0.0869193149340638, 0.002256220330059474, 0.02224004496359117, 0.004329176253999117, 0.01841623793228519, 0.0004927543057851953, -0.07886135792105273, 0.19340437354288043, 0.07001360763445008, 0.06951138653780378, 0.16236251802986712, -0.1600934368611292, 0.013493146036296973, -0.12088128937206868, -0.005119580753021795, -0.10407002026850509], [-0.09309846640911165, -0.1245793179204238, -0.12742241712679878, -0.06503967570618185, 0.30057155029857463, 0.08278472545188056, 0.07720310188549866, 0.02571888790025477, -0.06923972620833686, 0.01069496592930241, -0.06948170319874741, 0.1605541621692333, -0.06588995652790809, -0.10715767423210544, 0.04224517494598604, -0.004394119863644439]], [[-0.6942650432708625, -0.360213910962719, -0.11356771288080851, -0.14722629575959606, -0.08307746257288683, 0.20762002156595882, -0.18720199588400635, 0.07574192987863819, 0.077586947145433, 0.0020943778632141114, 0.4484872470957476, -0.028460307396413077, -0.04188684408225146, -0.18666467602063827, -0.12556375929782834, 0.07138313049467429], [0.18846544822757544, -0.20825981884666248, -0.15468913670959333, -0.10839219700009528, -0.06905129408159268, -0.09127097259108219, 0.38550446158851925, 0.06690447473474231, -0.14233735952900245, -0.1458377102130377, 0.029182937835996677, 0.05744806024763335, 0.21147462324296612, -0.5081654873587429, -0.04430318164329503, -0.12588100708119965], [-0.13838509816728234, -0.06536949067666112, -0.0019802996921290963, 0.05682882024661626, -0.01933867419610214, 0.01994732511790563, 0.04103939876992435, 0.007370101708645253, -0.012982997038368046, -0.04917227465519512, -0.07221161100469552, 0.004567857028426875, 0.007611662197567061, 0.0045713018090747706, -0.0005547769951190874, 0.03159535049974781], [-0.024752132660815003, -0.21928832727610337, 0.6507541901054125, 0.1682022903490022, -0.1739812805227532, -0.04810299379108796, 0.07319641325691727, -0.23293637167525696, -0.10605984756934221, 0.025970208576753605, 0.025746870324156356, -0.19640742012209317, -0.12227729380746173, 0.3478743790565271, -0.24991272991622784, 0.0812557070981363], [0.016906492493996148, 0.24625227866873933, 0.01873445942295476, -0.052014887416982396, -0.015637087237702782, -0.005533259408168956, -0.0397021243087911, 0.23420864684827022, -0.09399837223274798, -0.0048728621164298965, 0.12642376399707264, 0.056081335314973134, -0.06480193433070452, -0.19156488837391922, -0.15253089661115657, -0.032808417202573506], [-0.08766798641372921, 0.15204837586825087, -0.03757994246519021, -0.03003767222296609, -0.013602096462313681, -0.0058496802187323225, 0.07205373947009812, 0.1720049155608475, -0.15932131219730408, -0.023409409936919052, -0.19174695985671994, 0.026562929103767813, -0.249561055544183, -0.12653009783261085, 0.2757120997564635, 0.029380385351447057]], [[-0.8081425886892595, -0.16105180922355147, 0.059607810379082166, -0.12568715932867372, -0.10830945890249165, 0.28864311333922094, -0.3457836023851055, 0.04905582919838438, 0.1361688038263984, 0.031879381530450446, 0.15303246430448164, 0.03250483544708358, -0.2872074260631977, 0.07907949513445159, -0.12595995615517197, -0.15330514708184628], [0.18218623790999064, -0.18483280850740008, 0.05813289153009725, 0.02714537467538188, 0.029417715628566068, -0.026049868487032623, 0.15940565069102883, -0.08314945618531432, -0.002354185338466373, 0.0021462651737962314, -0.002030247373256638, 0.013008862807370267, 0.13031549272931897, -0.09317195370607907, -0.039391528678808685, 0.03973050511016701], [-0.045305109079830895, 0.054746683269441335, -0.029795869612600577, -0.012758903531167688, -0.04393109853081584, -0.08906088357770406, 0.051801879811062074, -2.271092340111478e-05, -0.030802816584875256, -0.013111758815243155, 0.033731045549079595, -0.055615940191391905, 0.030475272742906737, -0.020313094138194515, -0.022958717347458593, 0.026361078834599143], [-0.15625819343230873, -0.19766247703275897, -0.08142688370538169, -0.016089386771708895, 0.029211185480590637, -0.25851681955381006, -0.1562185994088683, 0.03239923192912839, -0.05401657121397005, 0.11899037856990999, -0.0734160580512876, -0.20821623304913894, 0.020443342254856167, -0.053885332911634706, -0.19053952459971457, -0.07143116971717586], [0.03815803217339817, 0.16033249895538307, -0.07913132859917134, -0.04046426014251258, -0.15134352831619574, 0.11835842059235155, -0.00523844570251871, 0.13598253797829418, -0.07845712441722297, -0.009017835205880318, 0.09447260880880205, 0.018919339112907912, -0.14459386132217525, -0.044027774369398844, -0.09573734001847153, 0.0454885196275852], [0.11203179377846972, 0.11522044413342063, 0.059951897275672884, 0.11495535525955862, 0.05519949375235998, 0.0475792145058725, -0.48537959316023477, 0.07587990288424847, -0.0387655628225521, 0.01217845233593027, 0.13896626298052253, 0.022626721734747505, -0.1593273269623614, -0.003125494682000971, 0.19184061011008843, 0.09657498308290749]], [[0.2075451821984267, -0.008765647156136135, 0.09250743764567958, 0.040872028181780144, 0.2394426404213663, 0.263711851479364, -0.38295671440692775, 0.2705190289194081, 0.1012405376980592, -0.03600979225266089, -0.2761875646016027, 0.3195769604388529, -0.08653153979207887, 0.14648765822853857, -0.16618452261922728, -0.1409431793847296], [0.08574072165936378, -0.25267013667616417, 0.099456672281238, 0.0682586331686445, -0.07508712527505901, 0.040052504752050536, 0.4409816432394674, -0.13336216643264975, -0.14441374616414648, -0.09585097076102415, -0.060161235432388285, 0.06159678995735661, 0.11946380346910034, -0.042943776566090594, 0.03431895471804468, -0.03512645311029448], [-0.023836664527142656, 0.004281325438447041, 0.08898611913031038, -0.036506987436827246, 0.03047204155133816, -0.04506108287396334, -0.028558725946976105, 0.00896610383029468, -0.001190284853038183, 0.057581712929218196, -0.004859888290158098, -0.01976949636799589, 0.028896866881776406, 0.0031984194869663783, 0.012180953193747701, -0.005464984185218871], [-0.071271935692876, -0.12938237763214952, -0.41432909065058543, -0.07371301793256181, 0.0903372909353909, -0.29807094557269076, 0.44440545295124173, 0.100827446500568, -0.07165992062545834, 0.14000820137990574, 0.003596263351180433, -0.1690370398802713, 0.1914139632419756, -0.09895549872688422, -0.23141236385997366, -0.12436115359356195], [-0.1425884378721829, -0.001160029732468238, 0.06896473577546303, 0.09392068053757768, 0.03137513418728629, 0.08275634978005518, -0.06067062798396857, -0.028413324805416477, -0.1566466737028506, 0.020941139272229497, 0.2981505913825314, 0.026770033142661145, 0.034580730193654916, 0.04994312133529816, 0.0008991227208039335, -0.00915584506742997], [-0.03454378807153197, -0.02340628031947948, 0.08103160713776322, 0.08342120051849046, 0.08410247564712968, 0.05463463893539915, 0.14368237875743578, 0.14318956014069592, -0.2952423679424892, -0.03487524733135307, -0.05509310642496857, -0.00542898579064068, 0.09207223212195835, 0.06188554303325433, 0.11839643596339668, -0.0055310677041875145]]], [[[0.28079308042021633, -0.11188557676861713, 0.01703735537610265, -0.16236768236631444, 0.13482983608077306, -0.05027294504229094, 0.3619561770090555, -0.40490227541416424, 0.0745592480284202, -0.20014428843527762, -0.3521095468796322, 0.03781120088573861, 0.11251475180404767, 0.16963857815473185, -0.0016998074489116854, -0.027199943883840807], [-0.15277415877750705, -0.11194521337917952, -0.08209435204094867, -0.03882141025152672, 0.03297782339341865, 0.0004877524878287422, -0.12424429119966775, 0.2380509872762394, 0.08021156975182588, -0.06860543704300616, -0.03518600138092026, -0.12534684951882605, 0.04804958493449747, -0.23143348723417817, -0.0763500029368085, -0.01956230390323407], [0.01094127144967465, 0.02828071591380049, 0.023873306905521224, 0.02042373014948138, -0.014770748009081548, 0.038623150830112106, 0.009377745608504854, 0.023622798939678075, -0.036623801476083497, -0.006183462528688159, 0.010637874717430131, -0.029676827415605223, 0.030411624217151375, 0.0646469818578286, 0.08125472197355428, 0.04743257328030915], [-0.017501051932321432, -0.05515770720482499, -0.01173468399457206, 0.34548153316615315, 0.05042502069544917, -0.02641895663662211, -0.040911844390922644, -0.4350479152646459, -0.08721601363872204, -0.11008805001907501, -0.1709028326149204, 0.12072252433275471, 0.20799713017905727, -0.06975396719819796, -0.050243898087160406, -0.003412264551595063], [0.05239809078245782, -0.03671825878893529, -0.04389684731971344, -0.13120321320526904, 0.08544637762538466, 0.012721653130006045, 0.06297757586394562, 0.08422845918338226, 0.08339123799777194, -0.44898877128412396, 0.30502716007120184, -0.14480774598005153, 0.1631552070345762, -0.1707030489615466, -0.15735476995759792, 0.017421302028601194], [0.11224512007207187, -0.15250179212467208, 0.08774107653843011, -0.061807434781509255, 0.07544989560679648, -0.09261225223242738, -0.18029973857402523, -0.11593922782161417, -0.11236721384126305, 0.03860090331700292, -0.036374751198670834, 0.06812073545001632, -0.021433218776313354, -0.1659612723698043, 0.16503985336647853, -0.017134116136575783]], [[-0.08408918662668684, -0.13531206802817317, -0.1243204527835435, -0.1161801934743025, -0.10228859776350852, 0.1528275852879316, -0.0032363824335255725, -0.3843518598135645, 0.14263757374742425, -0.11254679873644846, 0.17363914517086543, 0.02712776188079887, -0.036455969551115824, -0.15482363622004583, -0.08395036175000534, -0.04973575063763623], [-0.1181000033088326, -0.16646577114615915, -0.18732714269933323, -0.04426616527133126, -0.02358701055346703, 0.04573312622096372, -0.0049706108636608445, 0.2012332132669528, 0.02689601353160152, -0.04256999081024436, 0.17896543805265544, -0.026382591168196277, 0.056230867749934556, -0.3715462709220538, 0.005950622567649943, 0.06579764313005154], [0.026497106306437142, -0.04235245798116055, -0.06382961851512885, 0.023755283495701184, 0.08762085256453854, -0.03041660517954173, -0.01760321227317893, -0.059121024063144116, 0.042825761472196223, -0.09700343159122482, -0.10779310642788947, 0.016177244502531066, 0.020972207749589033, -0.037924979595762666, -0.011387199716821898, 0.02824008083934027], [-0.07901181386626943, -0.28733286029985994, 0.34347422949909845, 0.5251896793030807, 0.0023915804554398186, -0.10569476195468033, 0.059510649203669164, -0.39433448776346236, 0.04974094722484953, -0.030318744080686865, -0.23740810159691883, -0.21684639993065888, -0.21511371739966026, 0.33421154877474973, -0.05016145051468754, 0.08593427602223068], [0.123817044021114, 0.006916009676101236, -0.2040527140262609, -0.18717592340997147, 0.032567864188499905, -0.014923104049073961, -0.18912916644532532, 0.16097062036102655, -0.01204530957941064, -0.17667467487429653, 0.03693628033935755, 0.026031158328262523, 0.14182726446741103, -0.03580018637118013, 0.052251907457419616, -0.04618489066364816], [0.052046164092077886, -0.004883335334179244, -0.05343383008024496, 0.008417653333940477, -0.12222896347856001, -0.13405068508295884, 0.40842348271569556, -0.04020295188430868, -0.11641883751146362, 0.024201005342609473, -0.21574564923457784, 0.08514903299854523, 0.027496255792411738, -0.03549484996661024, -0.01288347849572832, 0.003736187587289592]], [[-0.13629175639697752, -0.23891178906265378, -0.14427408793321553, -0.07869344998581979, 0.10487524369413824, 0.23237586736256902, 0.013307013483063696, -0.0061172670816690726, 0.06701380077726399, -0.25142448297097114, 0.29389576921890836, -0.11083332302390014, -0.12451998830873037, -0.0577118009997648, -0.1176884673517243, 0.08023287717424973], [-0.13645986293200382, -0.21869590861242333, -0.10638901706846055, -0.08560907766658896, -0.09417129350611345, 0.07577586190793865, -0.016123469931915456, 0.11324557687425, -0.0673003914829634, 0.006065519840918294, 0.08529830108716767, -0.07549027571320117, 0.17881195430358754, -0.1616426768231598, 0.022773322396674033, 0.012154408053323733], [-0.03805687039170982, -0.026264248498092425, -0.0023303075165548013, 0.015314136416579452, -0.03597695350029111, -0.050352296119860716, -0.0024657853740900444, 0.004963741985077248, -0.004226878568147616, -0.08784791513196012, -0.028146078095650964, -0.057504571561108414, -0.018788260224776327, 0.03921253080656146, -0.0446899989017856, -0.0342488896853599], [-0.13435948742924014, -0.40502905396623234, 0.3751477880025479, 0.32959595227438915, -0.02503727137805759, -0.1959412809385402, 0.06990246399924044, -0.17607997026898764, 0.12324097076851476, -0.0459693839853272, -0.10396323392114401, -0.13871387390019277, -0.2513860364508999, 0.19348520250149268, -0.0243221303740826, 0.007734863299073859], [-0.09585860450607839, 0.07466504498218397, -0.07570445570190598, -0.12796576402799034, 0.03388157649065892, -0.1055144203948906, -0.10366483700456687, 0.10562065745957547, -0.033484770878621055, -0.0384964129182132, 0.19634581072121235, 0.07599772803728974, 0.040011892003368195, 0.045268367975016634, -0.10456781178850293, -0.025950222191831337], [0.14356588745740945, -0.06647102964256664, 0.04894172938989015, 0.00259851801784979, -0.01092769360209583, -0.09580901922513159, -0.4367433018854159, -0.02546959391179929, -0.05367447940348354, -0.09059357725002201, -0.099297498840822, 0.14569903892673391, -0.1966371731700768, -0.010416112039321706, 0.09770477050452465, -0.058845195012730146]], [[0.16866349696443725, -0.008214650088529942, 0.07935784164871867, -0.06503623105477699, 0.08304072397222417, 0.26342481767592163, -0.23816131902891385, 0.021842343156793034, -0.0005730626600000531, -0.17742683827094924, 0.014537750214771755, 0.029796991275005628, -0.2083582940062651, 0.05544665292313937, -0.15065622387125566, -0.05460318350035366], [-0.056843039079296304, -0.14274705959263767, -0.027804663742857342, -0.10801230881854663, -0.1303500875261456, -0.0724870540843589, 0.3124072437271186, 0.14809728297081476, -0.008879104418483061, 0.05559883807167359, 0.00344539968827512, 0.08941082802618855, 0.048388797635565924, -0.09183574662936436, -0.01384582080265791, -0.07518402615927379], [-0.003027676116693022, 0.0036723439664847974, -0.10346345752861752, 0.0028794159581242472, 0.015290062550391616, -0.011055440547791125, 0.004020786728572106, 0.04581332864506777, 0.047768345724038375, -0.004080417308988397, -0.09527191949741835, -0.10800498135209735, -0.059633947532304624, -0.002418177141713828, -0.006333197639009283, 0.016310098606108086], [0.07894243078523162, -0.212345114328376, -0.0260691695633941, 0.09527748679766337, -0.10665234769075332, -0.24007996360391165, 0.16365751966748407, -0.1605255281438245, -0.06672178076233083, -0.09991375760128261, -0.10240287968531554, -0.477746533908693, 0.12031890234093597, -0.02502193313143128, -0.15079446631507223, 0.061127592343797235], [0.15513608288706296, 0.09326647207070349, 0.017864408604231847, -0.11536666156526373, 0.021130732154373277, -0.1207418356060034, -0.0873864685430452, 0.0834742191837251, 0.15385776703580611, -0.0021767774524173336, -0.019824876273453324, -0.12189599117554836, -0.0282590966933279, 0.039727382419880206, -0.12333597942160826, 0.027474167193583122], [0.14949494775269917, -0.12094310067244825, 0.17190989017906888, 0.0582426428985475, -0.2170351962450133, 0.0031283504884338505, 0.19963514157522302, -0.002105170636173761, -0.04022356984142034, 0.010119195157414803, -0.1713477169415613, 0.12360173945958637, -0.02548560058051613, -0.006323547326020876, -0.09269937298884498, 0.0025436463681588915]], [[0.5310209023904094, 0.01836124063543635, 0.0425108596670963, -0.03141429395122418, -0.08175804831760289, 0.1547290443868032, -0.07216046102300143, -0.007783859965278318, -0.05915988443736914, 0.01971952046804813, -0.44128689252998055, -0.07966035804215525, -0.09659389245419242, 0.08835605715833617, -0.22846124788466052, 0.10558317314717658], [-0.13924759638281253, -0.08020826711731928, -0.0018787584120677774, 0.11032609271464319, -0.1489028375002682, -0.11046409246732511, 0.3602231012309081, 0.05040248833591759, 0.05560572349509623, -0.04985452918587305, -0.0777517391532609, -0.035371100720448245, 0.06863095848527537, -0.005592340899152201, -0.05063722123309205, 0.005803604232211205], [-0.06072623715890955, 0.03944075829613339, 0.057661464254245585, 0.05962576973450269, -0.004741920934359802, -0.04252782411533054, 0.0180810005180327, -0.02073023661939186, -0.003720885582042505, -0.0147773079125587, -0.04674572744587212, 0.02640377883244343, -0.049132140007254375, 0.039204741385010594, -0.038983643342472014, -0.07065786920652824], [0.22659525913538542, 0.06793702505518831, -0.07932174517032732, 0.05812318683321278, -0.046472803749543344, -0.3105950449548041, -0.05936361616848194, -0.005847043479847772, -0.17185452902033335, -0.14715744022867358, -0.0006819664606534884, -0.2479096255655972, 0.13840737363968733, -0.07652923737126424, -0.25634519112564447, -0.2157967409389525], [0.060346941306567925, 0.17795396845287, -0.11690454744710838, 0.02219615773826304, -0.14206010359523485, -0.09853076112455086, -0.04994518225846048, -0.12108477674019022, -0.008686240383031833, -0.025595981319829895, 0.11812759886930901, 0.004319860689288181, -0.06170363871822085, 0.22458648751051885, -0.1967131451583698, 0.03209763099557453], [0.020672954823927815, -0.03923668215549609, 0.26378485168619364, 0.11782455704426964, -0.06294450229402737, 0.022938394379838224, 0.19575104051858908, 0.04995027568818379, -0.02981901691874614, -0.024272007678855345, -0.11932539757647946, 0.11554121918147421, 0.1897765102314175, -0.02184032586574245, 0.17967697556050213, -0.06293958350220073]]]], [0.1807215184516546, 0.23663588684503697, 0.3898151227247831, -0.5220463913986997, -0.5925915223832409, -0.11979816850573234, -1.2092367673412774, 0.44003891075080365, 0.5190736489812431, 0.42952937227748844, 0.16398773532195454, 0.02749351715247395, 0.6936939143135799, 0.4265658563267795, -0.07139066243195367, 1.3473994115168568], [[-0.047194447270621484, -0.02546318595750251, 0.010913750687483693, 0.014623880289441074, -0.02854601597303692, -0.08000717541663024, 0.09207309331733585, -0.055439851327307825, -0.02852069197962293, 0.006046611883300811, 0.011031640087611153, 0.13418600808985715, 0.015671033024122705, -0.08831447619010042, -0.00938874813791641, -0.001729319793501992, -0.10071114447669757, -0.12234166353274464, 0.10583693232407751, 0.13218456436634515, 0.03771849570085484, -0.011816488309123123, -0.16509300877946015, 0.0017317787349130432, 0.005415348254974612, -0.11315666932994738, 0.00746458788858739, -0.14273270816451475, -0.11231073119414703, 0.08316285861277987, -0.10364250182743162, -0.07776293599342696, 0.031563613707852926, 0.022115599905277786, 0.11169425769871034, -0.08487209598233043, -0.10060284915295037, 0.008146327728481815, 0.04131951027691853, 0.016876465184088807, 0.06480751902862456, 0.15123184057960112, 0.06446542024561604, 0.02952843045357335, 0.012109341604021011, 0.11857637495697786, 0.17204503432008766, -0.04962611717844289, -0.0020501973376795945, -0.14860770373461532, -0.037895145767042025, -0.021867853762263093, 0.009976621532382298, -0.014046168953096795, -0.14578156053458285, -0.05235984026170429, 0.08131648361850287, -0.03599053724406822, -0.06574191032997771, -0.1276355261347755, -0.0010029928936025451, -0.09403016306382075, -0.10654597801645371, 0.11804049822462769, -0.024391188907162163, -0.16831034537142758, -0.03302823376219088, -0.10580498221884083, 0.029192392954735524, 0.057853403635951095, 0.06943009652212295, -0.11105255865285282, -0.035606833607650906, -0.007368255761511755, -0.05087755157283936, -0.008788358374483775, -0.09498521047966796, 0.0078324456414068, 0.058804979576236635, 0.04200701950159518, -0.05903112004339209, 0.09048190454281292, 0.126097565833254, 0.07891317725115574, -0.07361167063408877, -0.056300196725466774, 0.10572845687006656, -0.0893271237722154, -0.06932085005026153, 0.06632440362972553, -0.0368484225898189, -0.037503052555694645, 0.07590849550817663, 0.040318266299772906, -0.028463572450449538, -0.06268835714565867, -0.050545270831587316, -0.01899025227708468, -0.08602633736180938, 0.08540981021483803, 0.0429738772039421, -0.06709092441492877, -0.0386246726015372, 0.007998341601758144, -0.023672841964058163, -0.016944984650391695, 0.02007961615537588, 0.11617080522839804, -0.07205349294874858, -0.000825463229739697, -0.06293883562990252, 0.013266161852985044, -0.010295994761540294, 0.028026364707807554, 0.06710945567223409, 0.06445772620656653, -0.03701805654443679, -0.11145025576739148, 0.008955446660360314, -0.0027374099128900935], [-0.1196466364253885, 0.011889668545836438, -0.007075831670670339, -0.09263290279927104, 0.09316777157259072, 0.10384263602240988, 0.11378688226818152, 0.07628373056726931, -0.05264412655861021, 0.013273282106816012, -0.03377364201621083, 0.0564194002156868, -0.17238456224029647, -0.09776568076420424, -0.031479175526936146, -0.11680112833918616, 0.12006399237268205, 0.00746639353739202, -0.11518021574833491, -0.12893704837688713, -0.06179677298786389, -0.15959381072802836, -0.01212556840960624, 0.03994467460649614, 0.017284274623710256, 0.18015725327506898, -0.0003775028821591988, -0.011173275174322258, -0.09761402476674304, 0.004917631038541516, 0.11884447417811003, 0.0006296284902961337, -0.008023418666061665, 3.621077865938356e-05, -0.08695922101246399, -0.0941475756198517, 0.05221019840539363, -0.038255478026563414, -0.1144429047362791, 0.03757509146354879, -0.03893021993156795, 0.07273800183460608, -0.013697822660516862, -0.10967469503284562, -0.1147150432665199, 0.004536520286891058, -0.014491586006982393, -0.04651143928818221, 0.03021963529971481, -0.02408656497881383, -0.23361244446937057, -0.027442423848774624, -0.003142455215597679, -0.03215941984934121, 0.1482795638683304, -0.1277924516432971, -0.06066333183472241, 0.13565935761275735, 0.019834575630916753, 0.06258276838419287, 0.043434113003688844, 0.042295724518917686, -0.06311546592229031, -0.024506809035860423, 0.06556865161360521, 0.028905775995703573, 0.03423983937798465, -0.08990863640475243, -0.09395026946737363, 0.10335764888560148, -0.04721659660616261, 0.08808627046158134, -0.004324129559327314, 0.0015028633927570048, 0.06256814395343009, 0.10955519329221704, -0.09982213632280325, 0.14921254162667363, -0.002440625317934404, -0.000335351674591541, 0.018370174264185846, 0.059590460097140814, -0.05110449815246361, -0.027885664054014075, 0.002042980906997993, 0.012352401849500446, -0.04990289223014947, 0.06654511570395012, -0.03547788061233456, 0.045631339244744266, -0.02643172190501116, -0.04723546751844524, -0.08123424313186692, -0.10019458348452749, -0.10665356633484731, 0.07143992905496618, -0.012389980308477084, 0.03078310010480913, 0.13259027946660004, -0.08035534271308561, -0.009401136841312796, -0.018235858624849492, -0.12885269048675388, -0.06911634508888859, -0.01167202806194867, 0.06601010432437747, -0.053928719526584144, 0.11437716359158313, -0.03191304569947732, -0.08819273556399553, -0.06879522067572601, -0.031406192232400404, 0.19355461131530988, -0.11916097891420502, 0.001751558862048595, -0.11638375437041325, -0.04961643128392153, 0.10268394014427012, -0.05149448291017841, 0.042029424428283245], [0.09611999697002424, -0.08599189043155848, 0.0038112305462365834, -0.03571936649021989, -0.016439859570245685, -0.07653947532883996, 0.04996700611095255, -0.0436967792840061, 0.05029621142106489, -0.0961134280013891, 0.07172695778102453, -0.04537949051442805, 0.02470796868369871, -0.07680698517296149, 0.05687732011877073, 0.0762013800144373, -0.07099603606720734, -0.023215449088822945, -0.12565097021116398, -0.028057302241270104, 0.009570569930337627, 0.09250366569479662, 0.01100863793700549, 0.009651509895577769, -0.018257878162366396, 0.02380146804109015, -0.03054487821074216, 0.022239647793238237, 0.22883669239604487, 0.08635040202409842, -0.02525959130051047, 0.0704091155845546, 0.004345536851178172, -0.0229137234764125, -0.1664714511129307, -0.13790087557057354, -0.025827055247434262, -0.0017292897198393424, 0.0233336809318543, 0.1205547159975082, -0.035202284225833276, 0.03980417356920062, -0.1079760464994141, -0.05690468574251921, 0.03311498930500034, -0.021929897846139315, -0.05622149618033191, -0.04102209050892798, -0.012764452485801207, 0.034008756716768083, 0.0014668658819245576, 0.05118284243595633, 0.04687473249961076, -0.10903727529367045, -0.016940990935628786, -0.042928625012880285, -0.051354893865667654, -0.003326871354385683, 0.050882250170519235, -0.08034166617123256, -0.08289723327087085, -0.06879863745517835, 0.06846973623038591, 0.01095285935319495, 0.04752712560411762, 0.009439001711, -0.00771821024785879, -0.0528581023162162, 0.10830540875707857, -0.01049125350702414, -0.04295488510803996, 0.1342233785257112, -0.07829474966730246, -0.0424867232023132, -0.016471885236783907, -0.008070653034450172, 0.1462924999889066, -0.03616981002730991, -0.10594344846514199, 0.1079113592659333, -0.008174252694793892, -0.06426050081542116, -0.013425552740886864, -0.06528621795517835, -0.13075733147630011, 0.04133772020131007, -0.004688661942401259, 0.0185959294150455, -0.06198360539574813, -0.0389029117741024, -0.049822290611534946, 0.023504529789911414, 0.10704584752991331, -0.07891549748329714, 0.19874414594924428, -0.023276295853323272, -0.06894805766101066, 0.10949129213715228, -0.002999283426646423, 0.14130104013250305, 0.09564595084053995, -0.027397560136272828, 0.14155452544807937, 0.0581848575352278, -0.023844144028451402, 0.10422551536062954, -0.07950166167980911, -0.011976997957889639, 0.014806847185637542, -0.07451883170645403, -0.15076332235596468, 0.037088570272633105, -0.05989928524577332, -0.13344298447552327, -0.09736820542856105, 0.007471204583996375, -0.008505068563541053, 0.011336871599202472, 0.029596656612868772, -0.0781815396730737], [0.016462258579201167, -0.09910358950752722, 0.11935179651797276, -0.06715955680862525, 0.08231321562985967, -0.0762950481797432, -0.01722883393480152, -0.10176821793610016, -0.08960716054181567, -0.049159780225170084, 0.024803794924782595, 0.0010551754941375315, -0.01791678339440805, -0.03808850739916362, -0.061635199144924234, 0.02227443580123664, 0.12912310338825803, 0.04823998956332133, -0.0031572063669738615, 0.11228969118147715, 0.19449746842041488, 0.03443701481827584, -0.025399967109515583, 0.10654504959658738, 0.0307676268967249, 0.03365468742966798, 0.12456744809462289, -0.00019738195219004952, -0.11493607003965868, 0.0037922869683317587, 0.08516477793754117, -0.09573162651503925, 0.08661771686273192, 0.00046969839959933886, 0.0015874583343465918, -0.05323193660355776, 0.09040580162200275, -0.0006876508803285283, -0.10555624556370521, 0.07903418790950399, 0.12383108471026284, -0.005959589994268197, 0.015224888493710332, 0.08596922191108643, 0.10783601848906853, -0.01703042899053793, -0.03393699075186592, -0.042611279565026854, 0.033762674354797434, 0.10357325207421679, -0.1053352102220515, -0.009097907593004863, 0.06756762005091634, -0.07387884803570138, -0.03884142158416508, -0.0375468178390394, 0.08000072240957971, -0.12164776885738827, -0.005983403729696469, -0.0018729543822712527, -0.02448370838057945, 0.15429568732490334, 0.025896640343810614, 0.0016158729242258545, -0.11364361361480192, 0.011220628552406492, -0.04773822097670737, 0.01929408409437039, 0.10798620980481168, 0.09729851238768975, 0.061490058922674944, -0.06802446109046291, -0.05293002111907634, 0.09290098993363358, -0.04188688576559254, 0.18755643383686912, -0.11060088334627025, 0.01834710238404003, -0.10023062813057394, -0.004579299319218869, -0.13277692626711995, 0.08080967746192036, 0.0325555126511399, 0.02501165838828659, 0.06504674923466261, 0.01426542510742914, -0.010475717915850509, 0.14421802309368806, -0.00217504546692272, 0.018097286236661896, -0.11551261484552304, -0.11602712820338981, -0.1249770609648687, 0.03345429191716219, 0.0219938472173546, -0.08095960865047377, 0.06860741491945758, 0.00978205223162521, -0.0028833876753966117, -0.0017396397047088161, 0.05961376117438564, 0.00529174659074595, -0.1287317334468131, -0.115464984135075, 0.0313508613769174, -0.13036506510135515, -0.11136248802229844, -0.07580515127955384, 0.038085456928478964, 0.00021767008051250478, -0.005783370954869672, -0.051241361235519346, 0.07659104400096656, 0.08377168674259808, -0.03757179911145399, 0.06632110036891391, -0.05081944937071132, -0.1659122303201623, -0.05092121710889046, 0.07328821546772138], [-0.0037892599597803235, 0.1493187574123099, 0.05644246101212942, -0.020412918772555418, 0.1938826177748453, -0.008803986993550308, -0.054076741263467586, -0.03506824858153236, -0.01713775020865109, 0.02249196661322209, 0.020034932996391933, -0.16565364374203911, 0.005828966848139872, -0.040202331498520136, 0.08974580932798065, 0.13356138298874742, 0.009519570023900885, 0.014382061302359264, 0.014446377347101818, 0.1320309476938898, 0.07640850066067767, 0.032354821643245914, 0.0614484084617075, 0.05846727367098522, 0.06571088117004287, 0.03684560456736493, 0.11171100977038449, 0.019169181187352977, -0.14609178782016127, 0.04978380413872701, -0.08401164786744, -0.01975995728570833, 0.1397328184745656, 0.012480485840002786, -0.020893596449322222, -0.05571694890919046, 0.014557044905604643, 0.14456799381575788, -0.030609695221704, -0.038308364035378586, -0.1350741541358944, 0.039351003496414454, -0.007077067823971031, -0.06618697771547119, 0.03139447058531555, 0.00219461379333122, -0.06295375860697992, 0.020916240231113936, 0.002108676153038265, 0.13821030066213794, -0.07052091139841209, 0.10211122163625953, 0.044160828331277845, 0.09622609086290582, -0.1717472644081335, 0.03356723860990285, 0.004564932785042158, 0.07760895188148843, -0.07831883071061398, -0.04981525722982738, 0.04937810701814305, 0.058658389571212735, -0.07621316424748788, -0.03665391045508444, -0.05528612941685669, 0.12006434431405347, -0.06353814154487958, -0.09391301761468912, -0.05552525242617798, 0.03236988347867548, -0.053289504413118645, -0.00834926174417487, 0.00493838616627867, 0.1659980499037057, 0.011681039118533385, 0.058511097403200825, -0.02788399086460673, -0.03754498746220152, 0.08974717367461331, -0.10554527701843498, -0.02551981501359088, 0.06604875720830677, 0.014695007130794528, -0.060284268810048856, -0.023409002790082605, 0.00487928563705812, 0.04895347842235103, -0.026524592592865465, 0.047908499206987344, 0.06509486737272686, -0.12679501957977368, -0.06221008629903469, -0.025238106498901975, 0.03087671756213688, 0.081600004426827, -0.008926038867686985, 0.02256441959962589, -0.016552896967840656, -0.08737655772645092, 0.07523203795863903, -0.028337940236571327, 0.004977894188878573, -0.25920805569375804, 0.11522021507769035, 0.016740038672009933, 0.04165639780922038, 0.06793320132231648, -0.18178321766640979, -0.04153194988516589, -0.019588318258323762, -0.10850984446147709, 0.17514044232667034, -0.05193052781716955, -0.07012543368096813, -0.004776960222886989, -0.07835472292451409, -0.01694663517701413, 0.22632608390051911, -0.001741658980879832, 0.15545568913880134], [-0.056098328302269705, -0.028743427466019714, -0.044447192949008466, -0.0990081433562345, -0.19335524356642528, 0.095626235456182, -0.0032304803976531842, 0.05368540519365387, 0.05421551303844926, 0.15909337038860458, -0.07723276988804809, -0.03625904522987613, -0.18397763159590663, 0.04574484203881251, 0.07171964213182083, 0.03160471381067381, 0.1342528408049012, 0.18258609624023125, 0.02442487575008443, 0.04930226005311091, -0.09827598491549988, 0.0953639383528158, 0.001426090384686475, 0.012249835881201028, 0.04240177880733194, -0.058663763457811706, -0.014071343846632585, 0.01690891259015327, -0.0604010727638573, -0.10577375140739743, 0.017695292970286533, 0.004332776193999721, 0.07360527461744373, 0.020199628816211505, 0.0011062746344483911, -0.11218477428822111, -0.0942775877998482, 0.05299563398002395, -0.09843541645486364, -0.06246787506440569, 0.06711279000946346, 0.07300030228564527, -0.029244172450131826, 0.04720476491878619, -0.017087229268514918, 0.0241099181887482, -0.06981003502470987, 0.10694496593403016, 0.011961870962498755, 0.0026781372568819993, 0.03890707532230832, 0.0741246666030304, -0.05812864018518349, 0.13122524622559165, -0.10549428511200487, 0.09689175485645966, 0.21403972429076962, -0.04940108758183437, 0.031023940723222183, 0.03786778163854573, 0.05270870226303662, -0.16896061559371575, -0.06079691907945867, 0.09941360331181504, 0.08854224036781268, 0.07632522248916727, 0.028080080495496203, 0.04993361635776058, 0.03194790180272412, -0.1013256882630047, 0.01214205462615836, 0.042000736812267646, -0.016237686551384484, 0.06786190400521878, -0.15536023121303605, 0.07229345265766962, 0.039860631689748315, 0.14864957784722108, 0.1169390518093061, 0.0821613268695147, 0.02713889677559581, 0.10342629195254155, -0.07283611142138541, -0.01875002850070631, 0.1702890383974872, -0.1246615644938799, -0.04184867310685626, -0.11049340068207807, 0.05774114921881296, -0.019913044832692333, 0.0911903094000839, 0.007179534900411534, -0.035913135794948065, 0.05183638991211355, 0.021960200968869713, -0.20810983937052954, 0.047622534759817474, 0.0183462581084317, 0.014633367617118868, -0.04144712789990335, 0.03710683851604621, -0.09960313508454796, 0.022892655927629926, -0.05966623821199463, -0.02688670985386073, -0.020264159076017696, 0.0991503139006445, 0.05741477063685934, -0.04986471568430352, -0.018808684489393414, 0.08576025614511033, 0.017973534615176194, 0.09059359059460911, 0.028329386447978607, -0.07003312575055637, -0.10733382996823043, -0.029167114102649105, -0.0668160483746615, -0.024033418598828016, -0.0429186049836414], [0.1011538419165796, -0.08192484570830372, -0.07120234541377753, 0.04424267539966432, 0.023324984317471317, -0.03112735707953877, 0.08351798673687949, 0.17375546982121293, -0.10655194566939809, 0.06534335921345881, 0.01804950938823377, 0.042520293630990184, -0.07563229581699034, -0.04628263531228781, 0.012398118698369365, 0.059507910182934734, 0.04758328958022238, -0.07252691631645719, -0.06254492416425518, -0.0257830674318204, 0.07355519406733335, -0.0621824223458907, -0.02501317713987596, 0.0779408141225878, 0.017878701848125934, -0.028916074704499514, -0.004486049356310152, -0.06136444928331799, 0.010291973547130172, 0.07983710483068339, 0.0013299088520651366, -0.03651018999142787, -0.009005128268400572, -0.029282558514773804, -0.04177664041799161, -0.04451373790147425, 0.12219874866673422, 0.17154233438525343, -0.03117570613322916, -0.05219155329650558, 0.10174479963620749, 0.02492689121353106, 0.048169651328969346, -0.141723665187442, -0.1257183813499067, -0.003985926715330026, 0.07821587252712059, -0.02919089105781059, 0.05981446411978593, 0.02235515332127624, -0.1022575975441752, 0.02896008947892756, 0.031184983364296644, 0.039795132568179375, 0.09299386970162993, -0.060211829707961934, -0.004137967503376113, 0.1007349569261991, 0.02817509084001477, -0.08286619304623737, -0.06843908003076216, -0.051324927106306366, -0.09360919196011654, -0.14996993295378677, -0.012016351761583116, -0.009891261991738553, 0.02583025738238, 0.09672076402334125, 0.03462291908671203, 0.08451650187457246, 0.004347251225297442, 0.022271288049063285, 0.06396838720199367, 0.11424734288082933, -0.10113735807893176, -0.06921376565789923, -0.02417106767716094, 0.052636848899287034, -0.108427779871017, 0.06776411341236634, -0.07038547960775755, 0.10004485753332139, 0.11861158448512486, 0.09602853104550955, -0.0798365944834641, -0.007448138061845878, 0.06559493024319929, -0.04463824963043863, 0.0708920613466508, -0.07166201422446772, -0.053719260068372375, -0.043566719401423606, 0.09226893258194321, -0.11949947783728014, -0.07162294361929832, -0.012088171718482168, -0.04841884536634323, -0.054733955406754804, -0.06319341156775216, 0.015140216181607994, -0.10671330141550518, -0.05256885935733873, -0.09539419728937984, -0.0685879517371841, -0.02788391058858537, 0.11097400809793112, -0.025890449182459155, 0.06357899717634545, -0.0735164723770155, -0.13889404046629816, 0.017744762155797924, 0.11776589769547613, 0.026556226614060333, 0.046493238747889326, -0.1164239483936708, -0.16013885757298396, 0.04777395679208285, -0.10103798655129285, -0.048225643007394514, 0.10562088816006376], [0.14804619498389762, 0.012811770391962353, 0.0029486475266432715, 0.014177057598638234, 0.016043549739618797, -0.08429433439301603, 0.12010626884968699, -0.0810862375518407, -0.023555147932034916, 0.08773742239482005, 0.07638452795682642, 0.05493024926959732, 0.06895535809235964, -0.06461488930729656, -0.04967206411328583, -0.027635563913574416, -0.1504581959669376, 0.03242013369848599, -0.023878715436971145, 0.08672873444556128, -0.014165488407223068, 0.011279922736805517, 0.016260469639072725, 0.04327990103126517, 0.09719301638947739, -0.07110087428223169, 0.04138965052777273, 0.08088716940754584, 0.04437329686360533, -0.022747196421247378, -0.009488536300916986, -0.10930518480065902, -0.07553676737336458, -0.014550236786708864, -0.06304553087210059, 0.015538177218768979, -0.0222944606982019, 0.002860271306472533, 0.11962737335757814, -0.03172869286646791, -0.05502720847367534, -0.00904866200428429, 0.050805416336114906, -0.04063787683325567, -0.00884372421426817, -0.1112333362148186, 0.012011364037280267, 0.07051139306050423, 0.03833181063387078, 0.02908926681541446, -0.0070431018083613505, 0.13990880144658466, 0.09414945073071065, -0.1600269843305034, 0.0021466701140750908, 0.08507261521629332, -0.06726484518425083, -0.13393250117604955, 0.030045102987004513, -0.07887956344365384, -0.0010135305634163447, 0.10687660835689713, -0.13913565600186428, 0.0019313808298898848, 0.031463235344756556, -0.04292783360810411, 0.076255024371118, -0.07993355016776929, 0.092314584344723, 0.006905573335239043, -0.21499447327801546, 0.1564447095517931, 0.03881387965376858, 0.02467487397053569, -0.029630256303929372, -0.07160791710120099, 0.11351663129646836, 0.006299466719647111, 0.009788244000276001, 0.0862938301318475, 0.06167748530615869, -0.06961086284411658, 0.10024542612954275, -0.003417091719985588, 0.003379677564192273, -0.08633795117995388, 0.030438709009676698, -0.025395549285770515, -0.05883509154117972, -0.14877843971478563, 0.06842239230527425, 0.08172979573275264, -0.13588623482584483, -0.028930056872527157, 0.07435761743460816, -0.11574830141749097, 0.004183649749172171, -0.003871168987783864, -0.15751720680819592, 0.14527901197802462, -0.18273925177842854, -0.13954036605889703, 0.025887064848736065, 0.08374632358951019, 0.08093530443166765, -0.01835526635572654, -0.0013546097499789853, -0.13222616396299108, -0.07810614913677072, 0.13293568214175722, -0.03543278943122649, 0.07390448210709363, -0.05542222488798838, -0.018823616264213437, -0.07344077326987482, 0.01908366522869347, -0.00738846800776365, -0.05531159715513567, 0.08759288636084453, -0.012770412094996703], [0.01689239333970363, -0.12798848094948614, -0.06866761732702172, 0.01251586551513656, -0.09744071757231251, 0.04118253741813477, -0.038282313460780364, -0.04806431824710574, -0.05403665604590267, -0.1169511145951481, 0.061121293889103645, -0.02490782060433889, 0.11706777488845464, -0.06601658043097115, 0.04177719057363684, -0.0063280751175642195, 0.1548364601947402, -0.027310586792088434, 0.06478161005065637, 0.06610091245071553, 0.06663346683663997, -0.2047064729846998, -0.055885181219098204, 0.01819299031191465, -0.048640334895471295, -0.019767349278144795, -0.01045520223328835, -0.06691183472315253, 0.021963613128986505, -0.09669431519820797, 0.11290814514434193, 0.12707866829040312, -0.09331203349429054, 0.03045713509226688, -0.04947221377241669, -0.07600163392618188, -0.04557702124901047, 0.17645801779238665, 0.10127654245311771, -0.011680654522539583, 0.002250082311643335, 0.15790015390724554, 0.08633964747460736, -0.19155533284284815, 0.0992446000673261, -0.03767974887782664, 0.00938102006519093, 0.07370282491236532, -0.07824597919247024, 0.0578585874902858, 0.036923668104302865, 0.13806083730312804, 0.07036411820046362, -0.010120231461893633, -0.043317095809772735, 0.15311950756493922, 0.06198120543764193, -0.10709447846932187, 0.0660295561416984, -0.07691249570312107, 0.10732049059985103, -0.045574238031251865, 0.07559715405031583, -0.016293510960368806, -0.10571515073072713, -0.0803616990736285, -0.06035861824088956, -0.0047404525912806235, 0.028592447167872685, 0.03176802429793892, 0.019790461166893356, 0.015600377196550042, 0.17036939744040455, 0.05770472360160697, -0.20960634879969214, -0.013116154360498629, -0.00018260605778168027, -0.19282531559401517, -0.06790324704926638, -0.04132544970766646, -0.03031860776400866, -0.051914272463190095, -0.007396858385209911, 0.21939120889445157, -0.026237326340663808, 0.03812267085592521, -0.13005887290025958, -0.06626898088848919, -0.07179061950313592, 0.1088432569766605, -0.006817928980430434, 0.024255500415527573, 0.06687570965915217, -0.14295260583933173, 0.002663540918233082, -0.03754217883380919, 0.0477915955375484, 0.037734572575736945, 0.08704893940260386, -0.02137172762121844, -0.07653888907366829, -0.07276624078043827, -0.20164482046123927, -0.032098248827503596, 0.04153329339273788, -0.15054580931374997, 0.07393437036214742, -0.04088251373954604, 0.010031265391057502, -0.039877391320143896, 0.03637431161373767, -0.004276572190387855, -0.019827187409582385, -0.08860239719705439, 0.007746286045397814, -0.03405736574124764, 0.009342396791140068, -0.18068100879929344, -0.01726653645963218, 0.10531547153427111], [-0.17095788736595782, -0.1002037634909447, -0.019822092166131008, 0.03444268247528275, -0.025420496394158526, 0.00886377909755126, -0.002652266454569022, -0.024508194153713667, -0.009893118461764785, 0.008811498204893024, 0.14913235312922843, -0.12511818567414174, 0.1564328918083171, 0.0762312175418043, -0.09575055675719173, -0.008258704684197994, -0.07262754687100346, -0.0013981819102853348, 0.013659407439966253, 0.1144181533613541, 0.06396421609783212, 0.060584416007404496, -0.030123498178852435, 0.030444431244786213, 0.036235985710216495, -0.1601649384925598, -0.049879178773365625, -0.1440474818755648, -0.06910662703821224, -0.020040362194071102, -0.07622241298671233, -0.02682253587635184, 0.03712670796786561, 0.06285765097784703, -0.05331918783592989, -0.015883785030483488, 0.05427622435301381, -0.08915241114408869, 0.09202365225561708, 0.1010397340559381, 0.11958250253140777, -0.07153691134710928, 0.07318698390882852, 0.08076130089242174, -0.010251214958668096, -0.02776687579822089, 0.07329363144390655, -0.03623579363163549, 0.08318512921077695, 0.1630907818332804, 0.055237865477179, 0.10135024311587555, -0.2015829715774675, -0.09431372678562143, -0.05276286674057388, 0.11602006034540946, -0.013332669769011898, -0.024652297723865412, 0.0965437893330517, -0.1773929344897152, -0.05862974425774387, -0.032150305630722714, -0.011439550124271645, -0.035889258564996765, -0.013406219554948523, -0.0610814783529725, 0.05264660136328436, -0.019148606681369862, 0.07704777864171859, -0.07530071700865923, -0.07559554871480736, 0.12131583787862019, -0.002832852120074099, 0.035151876197305025, -0.014607704836027944, 0.06130153935899412, -0.03161210576519551, 0.07993842654921854, 0.09894625653400328, -0.16160644879468905, -0.08329744678483042, -0.0055444387133361, 0.013093025342920858, -0.12555252021654123, -0.1703471239996677, -0.0035303761920981902, -0.06316971302086877, -0.0907877859610279, -0.13014791737707054, 0.15892921738110274, -0.1919142108042609, -0.08353887744154848, -0.029651635501700472, 0.01083766749526033, -0.06293945064075215, 0.11220055620295981, -0.05247485966910187, 0.02778209341164786, -0.03028967076161371, -0.0037747269023746892, 0.04332478948985175, 0.10494899409775442, 0.08608532647217962, 0.0190470000339601, -0.05053275794293996, 0.006623355668861621, -0.00222604426342895, 0.038415452006719454, 0.027468072301519892, 0.032639935173814735, 0.005312365157953693, -0.026828284811750806, 0.10103403649394824, 0.008344035127774761, -0.17510696154200273, 0.03024375729254997, 0.007149698322632657, 0.1629194339590789, -0.023337659407654674, 0.0023317435033337495], [-0.13880364134702664, -0.037838672114495264, 0.030684073456055838, -0.04272521868006663, -0.009912881749686017, -0.023905234826721918, 0.0885229687838672, -0.08892124002131246, 0.07209122250502785, -0.010695717683616516, 0.03858217743681484, -0.10081090119197407, 0.12191350457101725, -0.018868006595683065, -0.09608624917221964, 0.0288560501672694, 0.03411068133599801, 0.0117040263101344, 0.0086742151892928, 0.025730581470655656, -0.04531035882288344, -0.08199868951218255, -0.1816838932085763, 0.0555101994572064, -0.029894346204178038, 0.12531451005960398, -0.051822650765138666, -0.025645025913946996, -0.07306593512426046, -0.03681368415548377, -0.023932783221617987, -0.07887084893604629, -0.014711386285671207, -0.15149192764902922, -0.020005739129508697, -0.06554251480749591, -0.12722071491702727, -0.04357334152039587, 0.1483387284698036, -0.001891707655120431, 0.0058202183693850836, -0.08549630620051821, 0.10141108684036691, 0.049860702059615035, 0.0746559310154764, 0.15461866519922804, 0.053066816830702246, -0.0787870434772775, 0.00393246839385627, -0.09548416058459276, -0.08144086764016262, 0.0038178653685084526, -0.04943007851077404, 0.10664280406541243, -0.12960227394630336, 0.043851823053454926, -0.10379832057417772, 0.17919215174918043, -0.04728130616889459, -0.07596636280717474, 0.01034890621566973, -0.03247302112635278, -0.09589790437213755, 0.13303495810944482, -0.10856213944021326, 0.025020543504000067, -0.13274587297031565, -0.17594151264766125, 0.10942240226797587, 0.008765562398939058, -0.05352719505239174, -0.06475284681296678, 0.09028460057675432, -0.059812729956712544, 0.10229340404087592, 0.07734683744827399, -0.047099281972492024, -0.00019945851197644796, -0.03868838463157718, -0.029205613393385805, 0.05838609038033244, 0.07157469638451465, -0.05879750065872189, 0.018327201264836376, 0.0467313865168026, 0.07474885817736919, 0.0037560727745446516, -0.03921874397134604, -0.15001491241373455, -0.05084978943722133, 0.05488953378041363, 0.015412168463566458, 0.0018020351994805595, 0.008757090520333199, -0.04010668455037121, -0.02339097794346297, 0.053522002850583394, 0.08334953606741051, -0.12176599366904335, -0.004963072343663451, -0.004603669502933397, 0.07084239570075204, -0.12456871479015637, -0.05774941542812386, 0.015410673088786176, -0.11238212002082733, 0.056782869452581604, -0.14950347471760658, -0.03456112195509191, 0.02239196555032308, 0.12372258305509375, 0.004381459721639917, -0.029831719481802223, 0.05081486800364927, -0.06749860539122235, -0.11041836230620432, 0.00552024358952812, 0.10574764371375324, -0.04701455618008652, -0.044101912553543836], [0.09450931638750887, -0.15534867867730132, 0.1671034677287639, -0.10584400842274788, 0.11558282300469024, 0.021158115407052806, 0.12700159036868036, 0.06932458666152741, 0.03453828627684421, -0.11636129066997977, 0.04909047948881095, -0.040534211004257886, -0.019521580115641087, 0.002247287098250853, 0.02495602305687198, 0.06406562013177161, 0.0827253781326891, -0.055130003966738686, -0.02389666693235744, 0.028440938158908916, -0.016060905146515436, 0.020673037365935405, -0.09246802799081685, 0.17055226384220581, -0.037835282904077595, 0.03506148990710087, -0.012497537054879273, 0.05827127602331296, -0.06609834735394707, 0.04480495415350182, 0.22379567521196123, 0.04787679825767898, 0.046232024575177715, -0.02422643747837195, 0.0433408735980247, -0.08195751659281314, 0.06858813016205662, 0.057194463312497834, 0.048174507935530846, -0.12181495949389608, 0.06353165421391524, 0.01817823269414144, -0.05247212355836833, 0.044762395919802696, 0.00909162899359273, -0.053313642042771406, -0.06784293265623356, 0.05189302097873344, 0.06232103783276396, 0.021970840668090127, 0.11251885299970814, 0.00582892718799894, 0.03715048468100399, 0.02416657947124993, -0.026012805322644605, 0.08468111609837793, -0.08228062592957197, -0.0762729787181256, 0.014037046521204985, -0.126693660822892, 0.14112708939047672, 0.029810133487997305, 0.022791353772959308, 0.006922494729658057, -0.01722435938799207, -0.03343983257947194, -0.10319533007551716, -0.008820285380793269, -0.09275495593048602, 0.043213697533670076, -0.03785193995474398, 0.05652731413151469, -0.09508193086169356, 0.13353557190531384, 0.08851880831700841, 0.17644351935150945, -0.07371496603049177, 0.04247159218687785, -0.08969436363658745, 0.004055140851726956, 0.024849017991515045, 0.008187418735476008, -0.04444952957973759, 0.061770723899348, -0.047636958263972, -0.061826616401056064, 0.05889388561404186, 0.07123656854083048, 0.10167416527856254, 0.01943846457756218, -0.007596610648079994, 0.0020793603172483644, 0.03864541138608613, -0.012513903922144234, -0.09151604577429855, 0.04816135910640265, -0.06416906980936371, 0.054008630196851856, 0.012750680038679059, 0.015809290723710616, 0.07453137671715675, 0.044076158768755806, 0.05787813153757814, -0.00240617371673545, -0.01713940276414609, -0.12541310374516368, -0.06614151847826061, -0.1402727633798306, -0.02941675741699057, -0.039313479340881696, -0.08093909874095072, 0.15158130288455826, -0.04714283517162662, 0.048820911687955264, 0.04051753458214713, -0.17300960463012163, -0.21692387816309952, -0.0036842158722825004, -0.010802220184919695, 0.08788608213631809], [0.07512930403164661, 0.04677178154020199, -0.062020392996600726, -0.04678592489502872, -0.014188488694627095, 0.10059325929358566, 0.008616680591515335, -0.0952430738706132, 0.06055731499650049, -0.22039674633471326, 0.05198601088425779, 0.07634270479870119, 0.1174222838287226, -0.047482300270376844, 0.04800643616764766, 0.02656697507584449, -0.014390418114571854, 0.05660217126810364, 0.042334030659497014, -0.11998098765784948, -0.11747055376653247, 0.06964614681437002, 0.19965100673917208, -0.023182286631398524, 0.010640596544306775, -0.08162083743227432, -0.06221308300833618, -0.02549820102961143, -0.07014377682422353, 0.002352768900548465, 0.02230582368868493, 0.09562024226692858, 0.04548169024464917, -0.0378682255552819, -0.00575697972215484, 0.014288358413107126, 0.09844775089846278, 0.05750481213919806, 0.09214071347879367, 0.025849130532328422, 0.06146507691532067, 0.12163327634721104, -0.0008719167504719586, 0.02396086151361847, 0.042919963451890704, 0.10355808724802028, -0.03413550172568412, -0.1762762210936561, 0.09291093919647649, 0.05103068003051367, -0.10332628188557996, 0.009942569836760446, 0.08580240993364674, -0.13027502160494647, 0.036575618051351594, 0.019340444641523968, 0.14893692976648562, -0.09857225777830453, 0.0662646820955459, -0.012202098116424366, -0.031079004871349812, -0.06615682489544704, -0.07019835407772444, -0.07357655880874824, 0.05455081743426352, 0.05688348398855813, -0.14278085756112185, 0.08323581998753724, 0.10589140786224795, 0.05769342456160516, 0.012957541659245843, 0.13868051396976788, 0.20460302828541077, -0.02330619126319587, 0.014867038907528527, 0.15415383096260518, 0.06837375062824624, 0.16822180437924172, -0.13981751273408932, -0.008590976386442375, 0.014364345399107364, 0.052967677703475824, 0.07540914519321905, 0.019110184127727824, -0.025223162734268258, 0.07779307965139334, 0.04846295338962245, -0.07404471967180981, 0.10831088979181225, 0.10652741858779227, 0.0029949663272132374, -0.054586686559029374, 0.09852045615865193, 0.007893020973608833, -0.03328651258913088, -0.08996472852310214, -0.01631554965764088, -0.17881650945594169, 0.036503698865273645, -0.045092456082095105, -0.1051175727730654, -0.06667566581079375, 0.18538763758343826, 0.009056716093809923, 0.08387542272183036, -0.020292713488689378, -0.018959681367315885, -0.1319758633180696, 0.07403033493041562, 0.09449201792721403, 0.041990929466282814, -0.018711239901120495, 0.1184798710255772, -0.06139055663574122, -0.001822612704005228, -0.007737334332667248, -0.007618911359663946, 0.023492006377986645, 0.006769552961308266, 0.0056743693501454], [0.006834658383749357, -0.034646550463348254, -0.030449740853397713, -0.01697503545617715, -0.0852198774501141, 0.015029545017305653, 0.1694992033479248, 0.07765979072653573, 0.08342184615959701, 0.22718770863553475, 0.12143588087658193, 0.006940779355792721, 0.07376748108188808, 0.013125653321794025, 0.02136615128144452, -0.07646730240465846, -0.0573191613382347, 0.008466173740392774, 0.16756836344317674, -0.04788720315507967, 0.07566415203887868, 0.10831037644199953, -0.1534468675272883, 0.11290144137742522, 0.20331575631858026, -0.03603280929789106, -0.08922110085212098, 0.1301301879654545, -0.06164085801463897, 0.08185877187967312, -0.02560544426931915, -0.040347846304224166, -0.034590042753477906, 0.18962112891792662, 0.05056330569046727, 0.00966874983247732, -0.1692422567176695, -0.05105456582515773, 0.04014721012357527, 0.041434284253695816, 0.13672452639453056, -0.008458240726806215, 0.09620626737127093, -0.0631495000111004, -0.007084681075833102, -0.01682845584728356, -0.07375302097763757, -0.03149774773589738, 0.0725617568626379, 0.002838492522719074, 0.030453387488993292, 0.034082234910111774, 0.18636483499805523, -0.11627611519496985, -0.20177856753738987, -0.0006294834930871346, 0.0387657677689745, -0.03749411970546739, -0.030709545111600837, -0.20948840370215174, -0.1582914352008375, -0.09764498420206827, 0.11778067962999367, 0.020675384528705713, -0.23153109475268419, -0.019943937708909853, -0.0667757832299706, 0.10540704744976674, 0.08365749428666823, -0.04296341921370339, -0.09941857145060547, 0.18629939813546106, -0.019225654575127295, -0.11023857741168848, -0.039470071824069045, -0.09197491207255332, 0.005829433745203847, -0.20569205504944119, 0.08586080516025923, -0.0391844706802156, 0.03720906233558157, 0.09265359172910506, -0.009715409736237796, -0.0017813098881760917, -0.018396658443481456, -0.13406878040646444, 0.019114554272292535, -0.019371688616363025, 0.06646791727647851, 0.0015786547164975025, -0.016766047789401467, -0.013538471485331856, 0.008555753036455813, 0.027304797217244714, 0.07457121675479196, 0.11007335633672705, -0.07389928187708521, -0.08965033962994368, -0.16864885852408165, 0.13693656257611986, -0.05904431968688132, -0.039866168134056974, 0.010070904981115078, 0.004591126451863677, -0.08641331493966012, -0.15813167526964106, -0.02654434955282594, 0.08272281870578164, -0.14653288275789578, 0.10950722360012106, -0.03828135933556664, -0.14723113747813113, 0.06741471601152116, 0.04482402656520442, 0.1151363839796628, -0.017262122599462502, 0.04340412739677436, 0.08023494297215275, 0.00642989581524447, -0.03219204985531031], [0.08672727248917005, 0.02011865799091458, -0.0069697047777918224, 0.11678877169444601, -0.060162283098454304, 0.18526227349956606, 0.11946537310476707, 0.052811648566123914, 0.10103515315122398, -0.00754702208626447, 0.19819448652881066, -0.013083002884453446, 0.02060845514029311, 0.05114566119017018, 0.063323248460167, 0.11607935146130939, 0.041998004535055054, -0.012144158895479915, -0.04170869258926647, 0.01802636464719193, -0.05249408033746883, -0.12095863396931647, -0.05982985007356536, -0.049502044765736164, -0.08383270743508991, 0.03525764332117171, 0.0004380143935060043, 0.0800484530798348, -0.16403667514866302, 0.1026139696993784, -0.02217590805988406, 0.01646763198366321, -0.015179596402416028, -0.09078599110303641, 0.0918589753442837, 0.061474062456469615, 